tree
version=v3
num_class=1
num_tree_per_iteration=1
label_index=0
max_feature_idx=1023
objective=binary sigmoid:1
feature_names=0 1 2 3 4 5 6 7 8 9 10 11 12 13 14 15 16 17 18 19 20 21 22 23 24 25 26 27 28 29 30 31 32 33 34 35 36 37 38 39 40 41 42 43 44 45 46 47 48 49 50 51 52 53 54 55 56 57 58 59 60 61 62 63 64 65 66 67 68 69 70 71 72 73 74 75 76 77 78 79 80 81 82 83 84 85 86 87 88 89 90 91 92 93 94 95 96 97 98 99 100 101 102 103 104 105 106 107 108 109 110 111 112 113 114 115 116 117 118 119 120 121 122 123 124 125 126 127 128 129 130 131 132 133 134 135 136 137 138 139 140 141 142 143 144 145 146 147 148 149 150 151 152 153 154 155 156 157 158 159 160 161 162 163 164 165 166 167 168 169 170 171 172 173 174 175 176 177 178 179 180 181 182 183 184 185 186 187 188 189 190 191 192 193 194 195 196 197 198 199 200 201 202 203 204 205 206 207 208 209 210 211 212 213 214 215 216 217 218 219 220 221 222 223 224 225 226 227 228 229 230 231 232 233 234 235 236 237 238 239 240 241 242 243 244 245 246 247 248 249 250 251 252 253 254 255 256 257 258 259 260 261 262 263 264 265 266 267 268 269 270 271 272 273 274 275 276 277 278 279 280 281 282 283 284 285 286 287 288 289 290 291 292 293 294 295 296 297 298 299 300 301 302 303 304 305 306 307 308 309 310 311 312 313 314 315 316 317 318 319 320 321 322 323 324 325 326 327 328 329 330 331 332 333 334 335 336 337 338 339 340 341 342 343 344 345 346 347 348 349 350 351 352 353 354 355 356 357 358 359 360 361 362 363 364 365 366 367 368 369 370 371 372 373 374 375 376 377 378 379 380 381 382 383 384 385 386 387 388 389 390 391 392 393 394 395 396 397 398 399 400 401 402 403 404 405 406 407 408 409 410 411 412 413 414 415 416 417 418 419 420 421 422 423 424 425 426 427 428 429 430 431 432 433 434 435 436 437 438 439 440 441 442 443 444 445 446 447 448 449 450 451 452 453 454 455 456 457 458 459 460 461 462 463 464 465 466 467 468 469 470 471 472 473 474 475 476 477 478 479 480 481 482 483 484 485 486 487 488 489 490 491 492 493 494 495 496 497 498 499 500 501 502 503 504 505 506 507 508 509 510 511 512 513 514 515 516 517 518 519 520 521 522 523 524 525 526 527 528 529 530 531 532 533 534 535 536 537 538 539 540 541 542 543 544 545 546 547 548 549 550 551 552 553 554 555 556 557 558 559 560 561 562 563 564 565 566 567 568 569 570 571 572 573 574 575 576 577 578 579 580 581 582 583 584 585 586 587 588 589 590 591 592 593 594 595 596 597 598 599 600 601 602 603 604 605 606 607 608 609 610 611 612 613 614 615 616 617 618 619 620 621 622 623 624 625 626 627 628 629 630 631 632 633 634 635 636 637 638 639 640 641 642 643 644 645 646 647 648 649 650 651 652 653 654 655 656 657 658 659 660 661 662 663 664 665 666 667 668 669 670 671 672 673 674 675 676 677 678 679 680 681 682 683 684 685 686 687 688 689 690 691 692 693 694 695 696 697 698 699 700 701 702 703 704 705 706 707 708 709 710 711 712 713 714 715 716 717 718 719 720 721 722 723 724 725 726 727 728 729 730 731 732 733 734 735 736 737 738 739 740 741 742 743 744 745 746 747 748 749 750 751 752 753 754 755 756 757 758 759 760 761 762 763 764 765 766 767 768 769 770 771 772 773 774 775 776 777 778 779 780 781 782 783 784 785 786 787 788 789 790 791 792 793 794 795 796 797 798 799 800 801 802 803 804 805 806 807 808 809 810 811 812 813 814 815 816 817 818 819 820 821 822 823 824 825 826 827 828 829 830 831 832 833 834 835 836 837 838 839 840 841 842 843 844 845 846 847 848 849 850 851 852 853 854 855 856 857 858 859 860 861 862 863 864 865 866 867 868 869 870 871 872 873 874 875 876 877 878 879 880 881 882 883 884 885 886 887 888 889 890 891 892 893 894 895 896 897 898 899 900 901 902 903 904 905 906 907 908 909 910 911 912 913 914 915 916 917 918 919 920 921 922 923 924 925 926 927 928 929 930 931 932 933 934 935 936 937 938 939 940 941 942 943 944 945 946 947 948 949 950 951 952 953 954 955 956 957 958 959 960 961 962 963 964 965 966 967 968 969 970 971 972 973 974 975 976 977 978 979 980 981 982 983 984 985 986 987 988 989 990 991 992 993 994 995 996 997 998 999 1000 1001 1002 1003 1004 1005 1006 1007 1008 1009 1010 1011 1012 1013 1014 1015 1016 1017 1018 1019 1020 1021 1022 1023
feature_infos=[-0.029123495500463475:-0.0083436919879264475] [-0.0037285571193162756:0.014099296696363298] [-0.061618193703904221:-0.0013703150991897616] [-0.034038064379346485:0.02913142565047433] [-0.034395992294595321:-0.014351756330499862] [-0.034083016609567265:0.0030109106531675009] [0.015401152038821503:0.025935243373876076] [-0.045417179752748393:0.020568298539496675] [-0.0075015323155775485:0.0069096837927167566] [-0.010315369416610692:0.010078875380387863] [-0.0048443714108273401:0.060023732923106671] [-0.02647222368609272:0.017048677049598306] [0.015779588220596052:0.074301944847099885] [-0.023925392422095359:-0.0010042466424791347] [-0.043547921406875821:0.023030412950264815] [-0.012189078545669285:0.009359199101936562] [-0.041672827848221405:-0.0033568191033743161] [-0.03599542805981483:0.013833519767891621] [0.027198909963230999:0.063539511212426278] [-0.0093349143873754578:0.00021282429552875335] [-0.013488344203389709:0.0014557312752086346] [0.0093512267875999616:0.054259600582679576] [-0.025435924597991353:0.023491278973212487] [-0.032479245187501213:0.015964855713999655] [-0.019685794579736276:-0.005178679185492409] [0.021823308616496759:0.053576441984870528] [-0.05318781978981868:0.00050023633577072832] [-0.019307741455078596:0.00021452480111759344] [0.0036011039218665332:0.052032015437647711] [-0.020634658492228602:0.028333477977728568] [-0.018249979473760527:0.028486064403551545] [-0.024540332373125927:0.026930464570562175] [0.0070512063492622788:0.052672983841502388] [-0.0053188574451817098:0.040339434503527123] [-0.022475996606823395:-0.0038085447166981523] [-0.01626400087803152:0.010329338021076752] [-0.0089135062475484798:0.017445241561861731] [0.0061458053442317645:0.040031734623425519] [0.0030067453970147352:0.04371696713935827] [-0.056293686789593192:0.0079671361166830847] [-0.043638210584712851:-0.027841826044275337] [0.020571456579403975:0.049712613862558618] [-0.0063025455274932475:0.026631330674138851] [-0.03523218426557647:0.0013745039732633198] [-0.066499890378677554:-0.035354701941026162] [0.025657886997551782:0.092673342823018381] [-0.040069039228037263:0.015447095700774488] [-0.0076151476761436351:0.029547632551165458] [-0.013909451842214853:0.012250500414608467] [-0.023846301017479799:0.0058030323002444236] [-0.069525155640445438:0.0060586629739925683] [-0.0029726096038229471:0.023055352213884703] [-0.026524617582900079:0.024061362108832526] [-0.027393079587212453:0.0015145859216940489] [-0.042553113360270137:0.029071395174780128] [-0.013858056548833202:0.07158436036008449] [-0.072480090137626588:-0.0091008188947369582] [-0.0032457091346160894:0.072261736443287095] [0.031691682161883852:0.10095571561644311] [-0.014636827846552521:0.036181389297931035] [-0.020895666735356828:-0.0098053078663605971] [-0.032763863522747988:1.7812535403432054e-05] [0.023878024323978255:0.060343963955935824] [-0.038758263303874198:0.033571761916381324] [-0.003165283802554349:0.019677947970834109] [-0.046551173205436995:0.021489698388335435] [-0.0058287779874045672:0.030959952629850331] [0.023009382995029307:0.054664718647075825] [0.019189461882841392:0.037439577446860904] [-0.03592313730151158:-0.005707276458227847] [-0.016355564969939663:0.025774244940681729] [-0.0091027187163399519:0.00050424167008963504] [-0.053053854311747681:0.011182092412813443] [-0.014449804311910968:0.0057190863173344313] [-0.04707288528868693:-0.017376125171868734] [-0.016629866105133902:0.030794044550476858] [-0.010909704845102786:0.0089357852432512021] [-0.028694105207011589:-0.012474813230101594] [-0.02033718659247526:0.0023325756984353182] [-0.0084709965171177876:0.0024060612779488772] [-0.082982594532742399:-0.044309118775404693] [0.0027954039359150583:0.019010435481585278] [0.028862276870260307:0.04836806137404924] [-4.3765699630963527e-05:0.042469171040280231] [-0.039201172845025348:0.0090189533559295321] [-0.029089636124998017:0.01683257024267153] [-0.0082954057346448194:0.0012819369025485392] [-0.0059690399268026951:0.064001363046533463] [0.013244203535740382:0.044079653035760599] [0.0096375836994223359:0.044768275585110297] [-0.045425348190732275:-0.0023954390359842265] [0.029337068119407877:0.05872268410978293] [-0.015756722908352408:0.0095085018172494425] [-0.055377884155206065:0.0058532546513489214] [-0.014322932810501858:0.037758823568935992] [0.021374731840267724:0.0537634057329879] [-0.008633492743756372:0.0077423986883896952] [-0.080922371403378143:-0.049179022846524256] [0.024047873572037259:0.043727794094339745] [0.012822407377083489:0.022778524553177817] [-0.0018430289427244166:0.031519640879644657] [0.010607825411845061:0.02846036327836161] [-0.032111383079408432:-0.014785329591777075] [-0.039451274572992329:-0.0019180577399482172] [-0.0078365263712422365:0.020257257124557778] [-0.0073017754332063796:0.015293781891078986] [-0.056061841879138812:0.033663197458742543] [-0.028238677962235632:0.0024906184687947582] [0.02342762403771494:0.040611476451881665] [-0.025162061542321857:0.0052399396862524072] [-0.018526567505731187:0.02011703632999589] [-0.0048471340488123911:0.026362861580106138] [0.01779603688145626:0.038346453703475322] [0.00095142024138517023:0.037747228661645801] [7.0416800072173861e-05:0.021859277805008889] [0.016145533482778893:0.076918480019434812] [0.018513812405305953:0.039724518695631372] [0.02973005508423297:0.057579363155970509] [-0.0028097983715489011:0.032792578417379988] [-0.03273992750037498:-0.004560236426979971] [-0.0056257318348227926:0.019940534010587544] [-0.011328553700069265:0.021265925351807345] [-0.047310971485629433:-0.01378492209660178] [0.039948480633500282:0.087381259129675468] [0.0032157353210855344:0.047489048379516827] [-0.013629071542728402:0.019006706300207024] [-0.014302868814284697:-0.0018097262902577811] [-0.022475880988233946:-0.011556157095057867] [-0.0084272967954041149:0.033289302369575412] [0.039167679597070036:0.05767479942555688] [-0.0070628593195032046:0.015579351499630122] [-0.012083502647943549:0.073844189090766635] [-0.024114670203781843:-0.00092685569081964918] [-0.014055227859643273:0.015683174529445666] [-0.020286210451795031:0.03123853041062415] [-0.076690422513820466:0.0063656886852839819] [0.025510252668454813:0.047945847500719306] [-0.061169880388287745:-0.017373884813733111] [0.00091989826336163257:0.028143086891547396] [-0.0088996443977937458:0.0084117568335715827] [0.035783892370185387:0.063573770747968009] [-0.038521323039583617:0.0054362864453571958] [-0.023000359857096905:0.01886688298308617] [-0.039959447756883912:-0.010617600621667164] [-0.029385854821659608:-0.012771742618620102] [-0.027418924733428791:0.0061927057979813916] [-0.074226786489861585:-0.01532952446251842] [-0.028769861840083906:-0.0038883791823096764] [-0.0021825567533575565:0.034813103126575262] [-0.058641316724275791:0.014093899748091554] [-0.026171413931326874:0.0022236846886021459] [-0.012091424617072716:0.014936708845508836] [-0.032089473503460322:0.012289659231186032] [0.014714555457329651:0.029920285916267012] [-0.061719656316041448:-0.035964678039798074] [-0.022906361273470122:0.032776979466640724] [-0.0288650819971479:-0.00079092954627047168] [-0.046453884706275331:-0.010986658957064833] [0.011564327885191787:0.032498356299563463] [0.014999060543430785:0.061029608512804104] [-0.032568990808733732:-0.0025866554083870475] [-0.030062209895921226:-0.011082619441275398] [-0.041179078883787454:-0.018352759308603136] [-0.056344746731548476:0.011383031714707901] [-0.013524045222124061:0.058295985126192981] [-0.0079547312955196205:0.044941148691251653] [0.0083600200131279338:0.033775208820922623] [0.026380354732520244:0.047233346744453432] [0.042471581321742419:0.064190642852608309] [-0.030917120767837453:0.017459446065711776] [-0.016848535799911364:0.0047189377490491997] [-0.0042182480215940867:0.03117056418684927] [-0.0093008744648994095:0.042174009862250846] [-0.064419917342379229:-0.017301231387316741] [-0.0016354269951304866:0.046608111726887558] [-0.012384464288648905:0.025855367416956133] [-0.001289533743539336:0.033378140726114988] [-0.051974444459039704:-0.025519961226213434] [0.019586414647508432:0.089883668291945704] [0.011519163392594388:0.037509493587019764] [-0.019964429801461216:-0.00063084175888582325] [-0.013331272325568641:0.023941248194124819] [-0.059596037097416336:0.002362992961215078] [-0.042439867466112481:0.04940534222506289] [0.024498526371438446:0.047201622730775813] [-0.042363986736603763:0.024524987139742369] [-0.054619237703653012:-0.036649821710083914] [-0.032099081175943678:0.036959163837978051] [-0.0014512099865196682:0.0239623974886903] [-0.013416390890729758:0.011662653843296468] [-0.012242487270056114:0.018499680390711652] [-0.010968682582379324:0.0073221579332367432] [-0.095866810645647782:-0.05404722781062208] [-0.054538258209455445:-0.0071252767870565066] [0.022186262488142507:0.048391282549964047] [-0.0002220879585576369:0.021457485453799982] [0.0059042337788487711:0.066938603059941121] [-0.033435541023047383:0.0041531328146153963] [-0.0063833281992010027:0.027624435962864687] [0.0026363210978764683:0.034372378711283146] [-0.013034836973958821:0.0071819469265767075] [-0.029674507337848342:-0.015296085800127954] [-0.00044705815567469478:0.021922531784261949] [-0.026952032474814251:-0.0047483712933025684] [-0.04697060603761026:-0.0024366736939157078] [-0.095383833924615441:0.022669726571130748] [-0.0077082655019574285:0.025560678564431404] [-0.034893258666720876:0.011085685398060367] [-0.037011902468664037:-0.0050356422018863929] [0.0059555095202625087:0.026066425916461456] [-0.038804118680871046:0.014701326885306638] [-0.029164113268105522:0.017990452688361563] [-0.033864785188460297:0.037991440282286085] [-0.055623452973487655:-0.0078914066051588294] [-0.050086557126259715:0.0041491604252050169] [-0.034041406474072951:0.041559879961931251] [-0.025155815161024372:0.026835674763515449] [0.022268287886001253:0.042739793086636738] [0.0075551839509542286:0.035728170174915121] [-0.02435929397740948:0.023584241802739346] [-0.046763079900446362:0.0039631228349791955] [-0.050242240012620405:-0.0037046751350384181] [-0.0082157970663994592:0.0035789815596589127] [-0.006018072074999296:0.025783626990541521] [-0.016565716943482047:0.042135109989862904] [-0.025422838002407779:0.0053088845472281472] [-0.017684881956969364:0.035481606450224107] [-0.026273000454270851:-0.0028784645049352306] [-0.023746830607231977:0.003656490327465707] [-0.00042806358761777184:0.029998031913857547] [0.00086461280251184567:0.011457431106508747] [-0.044620180350331766:-0.027348188108712881] [-0.028746689178039964:0.0015539772165419662] [-0.013944239911972488:0.028365846156544399] [-0.041585291028740159:-0.023823403819827286] [0.015727744633213841:0.058623990672997353] [-0.0022521250883840529:0.029279202221208736] [-0.0032121641093785891:0.009264732344676235] [-0.0212016972714354:0.0037327606210201514] [-0.066249943738835526:0.0075998528649181864] [0.021604567869203513:0.063268291219402098] [-0.055526493538633127:-0.024255792458815234] [-0.016499292954023005:-0.0020612103804713176] [0.011967407664848205:0.050725962656319117] [-0.023720585448309742:0.011890729160403925] [-0.039697755272183333:-0.02119868069391747] [-0.008308655777119027:0.069708774466916396] [-0.040472658174761464:-0.0070156210103579104] [-0.02312490976348516:0.010614997578173895] [-0.016800474763206952:0.023615860422321236] [-0.038138364356110288:-0.023681222853584802] [-0.023116885153066639:-0.0092460835056500899] [0.0082566778712753353:0.027577014432357601] [-0.0020312902667209039:0.014099248478188988] [0.030785689718577841:0.046088561344176701] [-0.002368800544226233:0.061510699590689243] [-0.036240939532544356:0.033168816561355452] [-0.034750137207173619:0.0037409067887939824] [-0.020811626539807233:0.072689051598346779] [-0.04422539306706641:-0.015093971626569733] [-0.030337289074517139:-0.010708087296086853] [0.014497474370510017:0.028612718234173589] [-0.010081146496384016:0.030438768493443423] [0.0022857124404938619:0.020285722918997412] [-0.020097453733084376:-0.0059989965292149361] [0.019767214530525583:0.036358707448351367] [-0.018144955702022715:-5.9340857961655393e-05] [0.019491461168313157:0.039967021702478067] [0.0032148483572396374:0.0286245390667298] [-0.046435588454831284:-0.018208281061633129] [-0.011839804480407907:0.0092111572584001964] [-0.02095088708655506:0.055789654725324857] [-0.025883816190173749:-0.00039300004003241164] [-0.018965302967004424:0.050747465148367643] [-0.02755449475181216:0.019162773746789624] [0.019582608506154606:0.04205372986445003] [-0.051768246400963003:-0.0054275659757630603] [-0.019919237952238142:0.0028907759520051383] [-0.018717047066913781:-0.010165720506235853] [-0.047258695601750632:0.010575376204829208] [-0.023643372738438292:-0.0061650778930619904] [-0.00078370234302665911:0.069821980016656376] [-0.056493895379500544:-0.034740596839070249] [-0.027167543835825193:0.0049069258854533646] [-0.032045020297142332:-0.015542673700875743] [-0.0019082778518179028:0.016853751617948658] [0.03499808190228066:0.062253944440072727] [-0.032610549464210686:0.00019148036037745512] [-0.016272780709873137:0.018728339819678128] [0.01492447030053648:0.037031431256031186] [-0.042149457777929646:0.043432260757248972] [-0.048596266232239789:-0.015214026304379586] [0.017843324319877306:0.053372245003481075] [-0.013770657337649955:0.024190485051798501] [-0.016305604266173033:0.024204480347621498] [-0.043282685217858059:0.019603165228712565] [-0.022197885121020514:0.03279164737412283] [-0.036029054402217056:0.0065737155864724782] [0.0054618038096396421:0.060724211657651753] [-0.0080398838187928211:0.079995395889871812] [-0.022918094137285395:-0.0024322767181381333] [-0.01241040217079795:0.012801028171128678] [-0.066324620407931759:-0.043770643976815446] [0.0084605041811325124:0.042275806574964166] [-0.053838762914296921:-0.020407267871816168] [0.048319790169556141:0.075509983418631535] [-0.04166558656767351:-0.012127034375335613] [-0.0089205727557178944:0.0026570543752158478] [0.00067061940019981427:0.022541371871255794] [-0.031202976299859478:0.021973245658456864] [-0.0055084595023152348:0.0211639551129537] [-0.011169742766734075:0.031152803305385821] [-0.038999866372873407:0.039753852987741055] [0.010006669400029306:0.028742432071222974] [-0.0081196900871110984:0.013230120896862077] [-0.0075140704778720157:-0.00020819207692386311] [-0.010412696179270622:0.021043129456100249] [-0.0019363474903168361:0.037614102832473968] [-0.049941707270612715:0.0066396400985365561] [0.00072963535216680783:0.018564742711175006] [-0.020988594212015665:0.05321011551254122] [0.01842597337857443:0.028301159208240566] [-0.0076300758212034178:0.0054936851606631068] [-0.028594928275756298:0.012033335310482632] [-0.015245855420353841:0.024161252186464879] [-0.0022619394732204452:0.017041919872165311] [-0.039758628498649286:0.012359807475186415] [0.012874050593911867:0.029585258865685742] [-0.068005486781067548:0.011113298635006898] [-0.00074647546499970868:0.018606941569021887] [-0.03308879521558835:0.0016841892146415972] [0.01941753094085379:0.051247393666673427] [0.050980932136916568:0.083661560289068404] [-0.0098733009338313332:0.025258883187381072] [-0.0009931227341597312:0.040371485953803847] [-0.047980171420561719:-0.026766958568023313] [-0.047928608954673088:-0.015824199460539947] [-0.034913501674655456:0.016144233068191335] [-0.032492503555740307:0.0093903316698435001] [-0.018154265817225932:0.0065787763828527319] [-0.025246123047651604:0.023059270881968394] [0.006706370004775552:0.05324569525186755] [-0.027005827567618899:-0.0053982398884357807] [-0.06659275057730861:-0.016558046505816] [0.068102505844694641:0.10468539255643634] [0.0074595609764890021:0.02651287178958335] [0.021929429859438122:0.037357829991839883] [-0.030372974257010781:0.021646261153777272] [-0.0094893454479386824:0.053881576088439798] [-0.049916360310314593:-0.01212267912394358] [-0.014704468622333504:-0.0012674671620993884] [-0.052709691929574407:-0.030119443843310723] [-0.068592561839611918:0.018666222947241046] [-0.058403998740967154:-0.013937432014356311] [0.045083011180902126:0.068065559938854686] [-0.0053312866022873408:0.0095998646554956123] [0.0051086426971658234:0.021399797121163397] [0.016233847816170356:0.041759417253931369] [0.01558757792391946:0.079242568746806824] [-0.016654139857244871:0.01272532789879805] [0.0024455623597427092:0.039541870630417565] [-0.0051984723905813129:0.022139808285676039] [0.0035474773548150903:0.061452567437629266] [-0.034650886919888428:0.020819700165965925] [-0.029589622876377283:0.013108234468466522] [-0.05473863890666416:-0.033788666108558109] [-0.021483374320513889:0.031652024978086023] [-0.016093961544136382:0.010634590058892512] [-0.039241812891343417:0.00059102891840457782] [-0.069737326603561078:-0.043447505781870677] [-0.0014864270990548353:0.021012496292683945] [-0.010852291348249788:0.039839294730476961] [-0.022093679814351973:0.040757111859479521] [-0.0059359908718312577:0.018655661628775622] [0.031501390091327484:0.047078667871938609] [-0.015161021301189488:-0.0002537190694009171] [-0.046531713763049751:-0.01790949989158036] [-0.050437603695164299:-0.03354244713506177] [0.0080236832741873501:0.096258099139954048] [-0.049355379148437142:0.014234796464923915] [0.028206189365510899:0.051461976315355103] [0.010433932873049841:0.03645925218248687] [-0.044673828533584169:-0.016932239854243938] [-0.026145276920618344:-0.0039503125530346945] [0.005467709612785465:0.020840406955938931] [0.0079068006812749343:0.031068225904262115] [-0.026674799195041777:-0.00019633256630622356] [-0.05356522903028238:-0.02788175976424323] [0.039658139668616893:0.07109633312121294] [-0.028190194829136435:0.056892515757882692] [-0.035197729510422687:-0.019296343879972422] [-0.061640546392201082:-0.002223253827333212] [-0.016106411275922043:0.05788154981148045] [0.012643190611141155:0.085364557828527893] [0.0052809566132541088:0.01500721301985535] [-0.063721401302443595:0.018278466837797033] [-0.024859625221547145:0.0021764036018173316] [-0.085419408723285975:-0.041807869154647598] [-0.02384975693317971:0.027665369999897254] [0.00054713838533983954:0.031338757747486262] [0.019706274902093573:0.036801555623574581] [-0.029876017429727432:0.025665303418279984] [-0.020113644696877535:0.0070036436680874208] [-0.013411473843527673:0.018482255124333262] [-0.021507417060851037:0.033996848893987325] [0.0059879798938669189:0.017381968632720027] [-0.056674214600230963:0.01347738102951301] [-0.022087756739453349:0.007039581633559595] [-0.03326803919213505:-0.013096748836493836] [-0.010386191088360254:0.0035714961146670141] [-0.025847933595171412:-0.0091026115856561434] [-0.015525967538901588:0.020882418892143095] [-0.0011408167007519756:0.011526434056086741] [-0.031483518122746509:-0.005285748142358198] [-0.017702515980008066:0.01449141006331677] [-0.013224931537628104:0.0057251354041974456] [-0.02124307488750472:0.027806293507321649] [-0.012366650202699883:0.020436223027936299] [-0.047934832649132765:0.012082362722230802] [-0.078791655466160848:-0.052695069133525722] [-0.056256624544807364:0.0038847604382829764] [-0.059977523482865051:0.016064467190139785] [-0.02286833822602391:-0.0087698238369121849] [-0.060085565485427796:-0.017441418926728344] [0.025239951913390599:0.084732890059723301] [-0.024655508419469174:0.0039398548377758578] [0.013816224375864668:0.034265027450807568] [0.0087589570033688082:0.041477287439221272] [-0.024068880650101279:0.031023549016979273] [0.0052196339466154644:0.050923400608263107] [0.029008402156288672:0.054832936884966627] [-0.0030441742677109855:0.024858626420927853] [-0.052181879112736106:-0.019672909065148229] [-0.025576664327154754:-0.0082524396804635001] [-0.015368538620086034:-0.002151160048236329] [0.0038034190794346743:0.037414858407098031] [-0.050315386295274399:-0.023710101277801342] [-0.036197410823327177:-0.017675827603953802] [-0.034312192417683893:-0.0087675070523341118] [-0.021922239079909884:0.016035991348226603] [-0.014110554372011183:0.0073709889198354112] [-0.021518786064899036:0.014326013840671604] [-0.023702572804593005:0.03203616488410832] [-0.044155288874287379:-0.021850810576325992] [0.027901050602759436:0.053534693334032386] [-0.013572873202916308:0.029827015926208875] [-0.063180118530507923:-0.029574992755971346] [0.0081958278455180559:0.024018539354601305] [-0.041823550235378495:0.00677383019161078] [-0.059958060754189038:0.02038881964966436] [-0.0086335848108843039:0.0022120319829778126] [-0.038670126712375394:-0.0033438284652837951] [-0.054560390506341261:0.019094053086749291] [0.011901553270204557:0.036167411734557273] [-0.057682485509018874:-0.03377492472824753] [-0.029164392289399328:0.01425992661359358] [-0.027154375814025321:-0.0035787169269184595] [-0.036729939060905818:-0.0095813789269907478] [0.002432642786508852:0.023073472390404644] [-0.0082755220412081779:0.044393110089197538] [-0.033677411927061168:0.0046710973612219299] [-0.014239634014247882:0.0071813959071658452] [-0.020056769856946571:-0.00096436645390463645] [-0.026045787960426448:0.014819815285087712] [-0.035924800760388342:-0.01332394610012875] [-0.042086471607818254:-0.0063820846322186642] [-0.0049303362648644737:0.0079640698340728237] [-0.039404383808879312:0.024983598090841556] [-0.0049457081409385387:0.028781599115684425] [-0.075789149193166719:-0.0011257062409198283] [-0.050770680880099922:-0.006187415444074142] [0.034830041826315619:0.059760841266605358] [-0.019478358479596211:-0.00067090642867127467] [0.0016337654110164567:0.042834292538273602] [-0.067774060576453257:-0.020067627572860052] [-0.032360880584971476:-0.0060806877170548647] [-0.034911466377618779:-0.0174152707974039] [-0.039591750836796523:0.012770334282606714] [-0.010943618107623326:0.020129996062615649] [-0.069440698035240014:-0.018726060477740093] [-0.0038227411306353972:0.030905536163544616] [0.0088206173103090556:0.032711588044024006] [-0.036949181208014069:-0.020955390887447158] [-0.070697663094231422:-0.028698450436278763] [-0.0038128644302125518:0.019402627085326769] [-0.011279331010751899:0.0067552802472757856] [-0.048693000941978322:-0.0047020212708019345] [-0.022742085486143988:-0.0081564461203837476] [-0.016755917928166837:0.037863159418874533] [-0.0025273144906679118:0.010653797641595544] [-0.0014142382424402208:0.016058310493144917] [0.012105676288337341:0.038581783120496566] [-0.0034195666039860363:0.045594018253791585] [-0.016336699765498515:0.0079158520047643496] [-0.052967186335319869:0.0041841349979832793] [-0.035045670344196658:-0.002980611712549795] [-0.012027395341231572:-0.0032877074739357795] [-0.059169833142835734:-0.00075152343818152159] [-0.0047418810810070794:0.020381314115408267] [-0.018287373177018854:0.010956664295264084] [-0.011919251357448429:0.012003570071815725] [-0.0077796869844421858:0.0026505119516401234] [-0.026310581898536342:0.033227346710327538] [-0.014922013428578846:0.004703641282130455] [0.0073142982165443054:0.078904672218293254] [-0.01964450053868274:0.00049053545677801651] [-0.0015562983098165995:0.061165625396859782] [-0.035981096320186701:0.026828731361792268] [0.022932245905810146:0.045477214990809915] [-0.012973930118064711:0.013369731232787294] [-0.047834769587228675:0.033987394039663957] [-0.065484932865898876:-0.0043296413679449596] [-0.016895248589133792:-0.0064997714858365451] [-0.00065242121385624427:0.024593223158543641] [-0.024344632972805043:0.0015132919426122595] [-0.035551412614181328:0.019414829315035992] [-0.0089532999133989811:0.014426653352427387] [-0.014997635324405977:0.050272865284392183] [-0.0024394068704181988:0.015810848536685958] [-0.043004660243857878:0.021540457178916908] [-0.0078710295332944866:0.011331940296888514] [-0.030854062450106155:0.0057386703990463823] [-0.0099704023551417855:0.045403701684077487] [-0.016811267080170233:0.011189763977250983] [0.0045732011411983202:0.025882017220797211] [-0.0091065353053618112:0.0082545734574960318] [-0.03947403555369642:0.02867930690881608] [0.0021751165396208488:0.067277454800213687] [-0.045791194741773636:-0.021690454568698496] [-0.040102774824312126:-0.0034844704683254309] [0.021097813154426884:0.034370824566906197] [-0.0013127104377316666:0.015187159257815866] [0.010164547521417992:0.037683810596759099] [-0.04460270111894004:0.037865151060367766] [-0.028250859444497376:0.015074957067646102] [-0.033469433870976791:-0.005942217955776004] [-0.029783113023334494:-0.0096837556516698835] [0.02017179340037261:0.047006334415672604] [-0.035953856386060808:0.053685423618260758] [0.0081138711202018137:0.020667445403229904] [0.024808777831221363:0.075006815776480759] [-0.032429620201274559:-0.0021639713603352198] [-0.01702492242377374:0.028138894459469772] [-0.036839885044236999:-0.022315604050980591] [0.00073757933828318839:0.02580246595387773] [-0.0080714337297264939:0.03815572340566635] [-0.0037739336036988922:0.008865845178778909] [0.011842190095594641:0.02187244812350915] [0.023349730156658668:0.056432847839457401] [0.0059670472116374416:0.031334474853634046] [-0.024749755749491422:0.036253324323166282] [-0.067409148296848076:-0.037301297241721189] [-0.034415223077057452:-0.013442526157685986] [-0.0053049256060994652:0.011848587072764214] [0.019540454331433376:0.041357365352780069] [-0.032750586962012204:0.002605925084388437] [-0.069546901529043775:-0.038460156335666601] [0.016830754219296265:0.040789359087938341] [-0.0043775741231480755:0.020577555540243524] [-0.018642576189087916:-0.0095912440611942186] [-0.012471968856439194:0.022320282346752034] [-0.0029641231878706391:0.0082664253861277556] [-0.019711910998993554:0.015868669823092239] [-0.027568821246202125:-0.0092697105488129539] [-0.020208463579873801:0.026936818674424927] [-0.021486916997223521:0.025659340167216015] [0.013159343218842228:0.045800017957448425] [0.0134856261859799:0.080637093551786651] [-0.030670753795704157:0.002754351639890133] [-0.0061685549091368506:0.033992669085585944] [0.026892113809851577:0.066767775116669634] [-0.021802123780946276:-0.0077555771842907073] [-0.015674531597494445:0.0058423304989686474] [-0.061851618709220534:-0.014489023073872084] [0.017058118285398507:0.053306948078171677] [-0.030551297900784116:0.035874442084293287] [-0.0090035786668166105:0.012695763516729046] [-0.05650630150759943:-0.022738658994066494] [-0.0078679250790964113:0.017679142463466566] [0.035596551846979803:0.069996084909557693] [-0.0027044639224833313:0.02295994344022741] [-0.021873759220081269:-0.0059391424985305741] [-0.0090885861505129641:0.054349764831184838] [-0.0016909773290449746:0.010359606870341657] [-0.05815077190508082:-0.017818946411000753] [-0.017895035632278213:-0.0046792991329904525] [-0.049579978678153072:-0.022655989168970575] [0.00050712641299299375:0.03222519841884107] [-0.0018086302211116462:0.02026451681847747] [-0.038691605591110345:-0.025493964082878063] [-0.028073515504522886:-0.013561606307242067] [-0.011894329437583534:-0.0054182820311340528] [-0.075958646760994009:-0.018362776107451132] [0.0019082897117088616:0.017162630753877948] [0.032715994214516819:0.053046432104689498] [-0.0093934188880988399:0.0094387450712537513] [0.0077548044941802433:0.024682440688970839] [-0.0096896137763257725:0.017666001790138695] [-0.035492075682485705:-0.0061344926715126164] [-0.017840912675062714:0.015866610429585173] [0.006692750212516088:0.018705444576437642] [0.025146809822359208:0.048683562089255263] [-0.030659988697719326:-0.0044448702652079355] [0.051351102744232192:0.09991360958457457] [-0.037907345711280099:-0.021615587220666966] [-0.021220556037273759:0.019252230548972682] [-0.030509913744049998:-0.018022255835898362] [-0.017555364172209997:0.040705124182486271] [0.0045153556973781444:0.044708446544952034] [-0.049016096903084345:-0.0065167285595519623] [-0.007483473118357834:0.019738616555359783] [-0.0095253836261238491:0.0098080649094662107] [0.0087308510846383861:0.060993242166587712] [0.016209679481024725:0.032317845203701831] [-0.027771198687200366:0.0025030726076261428] [-0.001939109971545339:0.010030519126910518] [0.002739955358741344:0.026266236741044734] [-0.021693339345746281:-0.0051810216761308762] [-0.03419987924813233:0.035891131081989831] [-0.0076650160109187713:0.013287228929044376] [0.025112914918519955:0.050056173348649882] [-0.03057666302594551:-0.019642409443719915] [-0.03134312576189642:0.015995660057030812] [-0.0062061085431084975:0.0079065792891703929] [0.0006899639352625969:0.034693661830097422] [-0.0020581072764314736:0.018033153877781639] [-0.00053372469261043901:0.027910422669789197] [0.016224281073727816:0.094173664514054969] [-0.00054220256081570126:0.014224097626769216] [0.0359719827629695:0.052794855910623828] [-0.0040423662617500812:0.032463342368317591] [0.0026723892318801113:0.014759073773860954] [-0.013737118126035763:-0.0053374430032398995] [-0.024966323898364375:-0.011653138661340139] [-0.061084909490653462:-0.04195603888496021] [0.029684403795071305:0.045763200583047961] [-0.020472789899501517:0.0049145269296709841] [-0.013527006162161168:0.018836889007734437] [-0.0079024753415131519:0.0265629443045481] [-0.00062096457782767774:0.032675407772772572] [-0.012892105329650438:0.011446705705515741] [0.025454959436753889:0.057540765644452874] [0.0080013802109509431:0.031098579853438488] [-0.019197833164618469:0.0093933654380050462] [-0.047135727452577374:-0.0074892941508761801] [-0.008810271759573501:0.015472894232345288] [-0.026198702644192284:0.0077737118791915347] [-0.011640396015396176:0.021279759082866986] [-0.004708407512942942:0.030837737861537234] [-0.048041777663215761:-0.015877166811907359] [0.015918735318572089:0.03225598984460392] [-0.016789536327769819:0.0023181246036558197] [-0.0020245263702818876:0.040240389384947374] [-0.05321146188628887:-0.038467302120569813] [-0.010414873359874538:0.046508671823630457] [-0.027711860183040785:0.052285380411684845] [-0.044953263343509589:-0.026750613340278895] [-0.021204486422288241:0.0046373246181870692] [-0.069881968070623454:0.0047062770135098634] [-0.013429773360352745:-0.0051705703948378683] [-0.018094140055998614:0.025762665754494263] [-0.027344131123291919:0.020787358453331337] [-0.021978217988976177:0.001979256189143813] [-0.011317597574075331:-0.00038311974108818134] [-0.011629418713143149:0.014772519025585688] [0.016679253391607723:0.030474738465412245] [-0.055601844174925065:-0.012733908592387669] [-0.033680085837436202:-0.012016955299469508] [-0.03958254608764486:-0.024674201184195412] [-0.030271172220454529:-0.0090212388008826961] [0.0062471904157484562:0.013732600765228401] [0.011191171129767925:0.039269451448165439] [-0.043708454498949362:-0.0081610841567182537] [-0.026339587688165755:-0.014305268899031602] [-0.035743678996217956:-0.003146735239571475] [-0.014298133886572853:0.019687588527755977] [0.0091111908078734885:0.06620450797448596] [-0.067860669913611449:0.029371720382698269] [0.0044017885372219408:0.013099067715608653] [0.026212739556044112:0.039914082126846363] [0.0493835892588586:0.081545971913836598] [-0.025566579173651141:0.047115361136306384] [-0.036509064534182387:-0.0011748661732513895] [0.0036144109370288085:0.035080796025188508] [-0.014416887595098956:-0.00057260625787920651] [-0.04911476230853179:0.034771557739990418] [-0.0012863569626918924:0.024776864787698107] [0.0047242722333569881:0.10077846994726741] [0.033309767160132661:0.048130919744058934] [-0.026195492388811692:-0.011334199860345685] [0.018691643681590257:0.084581347446813851] [0.0085799981389231665:0.027101089040831691] [-0.009459075237804003:0.0096993895774933076] [-0.034173500444819406:0.017391732861610491] [-0.031292583162367604:0.00651028949719937] [-0.011446863753943411:0.055283027650967174] [0.0078556512333892905:0.039738788720727523] [-0.022358836173999207:0.026499794016695843] [-0.042644894154245619:-0.030379274293073476] [0.020270049611810632:0.046694405357079735] [0.0049612977391540998:0.024495811950501867] [-0.049571312226202618:-0.012887282917741648] [0.012201526291267532:0.030770276951789549] [-0.015815226987059797:0.0075446999718121978] [-0.05816889815790012:-0.011070931244521753] [-0.0063520845289377478:0.0071404273908796017] [0.030648805597416857:0.066529451272972884] [-0.0014401159889606803:0.02441857671605473] [0.042977607743531106:0.077158613121602021] [-0.046253164746736887:0.00092176659744903683] [0.018241408198975757:0.036732251428350994] [0.029404867656257567:0.043339584721831331] [-0.01568950568643027:-0.0013251455960228316] [-0.022460545458576786:-0.011431907312175447] [-0.011094016758459585:-2.7818107711880326e-05] [-0.030246334057295033:-0.014690752807007903] [-0.054080670637812467:-0.034826890769380218] [-0.066262053258128478:0.027909624293138417] [-0.0033223865897177834:0.031069495091636121] [-0.023590428457592842:0.014149271157742754] [-0.023127129841002333:-0.0031236547351554378] [0.0052481563600144292:0.025214241554609405] [-0.060996424067278177:0.008010834252869907] [-0.030965044997336856:0.012274080259597286] [-0.056606061405207839:0.032687884520267038] [-0.053718774351049783:-0.0011693366902456397] [0.0026312267213277145:0.021116539896738847] [-0.036259915942772683:0.019385228160510692] [-0.029202329781410265:0.017711356282876248] [0.0034102536701631323:0.018627381224603529] [0.035340816911739785:0.054958586296676604] [-0.0088306665615898328:0.027487744268061463] [-0.03233214057273396:0.0010430747426843411] [0.0026924499792676366:0.0098413652367270489] [-0.0045648286363883118:0.0075289311165661153] [-0.013740374703461086:0.023173086094844943] [-0.021772263750895755:0.0049024521708162742] [-0.0048569757102906643:0.0061960753720739451] [-0.024152524596360646:-0.0097422953782500786] [-0.021332497890521239:0.006261244549707016] [-0.022334675421930669:0.0085354762915687277] [-0.015589916900096156:0.023979117243337879] [-0.0040251515563919224:0.0099600537381271722] [-0.077783054713011876:-0.043055587565850331] [-0.022677844710025933:0.026101066268363629] [-0.025621008078422117:0.024389988381738371] [-0.030871386977153591:0.01062253421946047] [-0.028543279347449383:0.047094902881683817] [-0.0021907910350614391:0.032127797991041457] [-0.0043551856585158462:0.015668125469350452] [-0.0011292831344939024:0.0094122450553532685] [-0.02786223864016216:0.012758051754412388] [0.011469348992723494:0.019976897725163437] [-0.025449752444653743:-0.00395831508793364] [-0.014862027182919802:-0.0025115380207582283] [0.012417080570939203:0.039904842655378379] [-0.020499949585269586:-0.0035277391986997713] [-0.07051483095524276:-0.038776324168534715] [-0.014832694060832059:0.030672198814660656] [-0.055287533504876418:-0.010143291731048797] [0.019720011849460834:0.038922740178639587] [-0.0201905890860762:0.014191816452121699] [-0.021339385120044206:0.011931863098165511] [-0.014177417680541074:0.020878031097481362] [0.022209437817242651:0.032118664152218028] [-0.02593570311989574:0.0019447224970963832] [0.017628851823847984:0.035852839099591687] [0.00028018062909805554:0.06350041475450241] [-0.037812818731766694:0.016196217333324527] [-0.034236199832214084:0.01409840700390479] [-0.03180432294603168:0.01206025149394423] [-0.034308431077696239:0.027514434856422937] [-0.0093400294721201742:-0.00084760969997740659] [0.01709415665147997:0.02805828276620586] [-0.043405477752749978:-0.021597532843494527] [0.005522121252658412:0.015823258758224761] [-0.010182996313980407:0.0040866257155154915] [0.0044755829748806906:0.015465223627313035] [-0.012796837072545492:0.00092791195673417432] [-0.010311266914830391:0.026006922160017543] [0.0067193079734529969:0.022751585981835153] [-0.03131592371435523:-0.020135149295723378] [0.0065565572238375832:0.039110777740878636] [-0.023942736493394789:0.054033573454153404] [-0.013412015797065182:0.0024943713191262293] [0.05136665285968741:0.075450628941864148] [0.020706719961111966:0.031857934479375974] [-0.010879090325866226:0.030944431434049846] [-0.049062997528939598:-0.017469649110795064] [-0.015093463548491143:-0.0010700583569325205] [-0.038321660666799415:-0.015365739954682125] [-0.0045547287358486442:0.019506782277074971] [-0.0068031078789869328:0.0035536174065377707] [-0.0002620033779938165:0.056028190222029421] [-0.04108162650464682:-0.014184591570065082] [-0.0039764111628052476:0.012889324888122786] [-0.011401418175916162:0.042295595444394707] [-0.0068475374099362871:0.011806799538702679] [0.054719063857150224:0.082717665539799243] [-0.0049308123082024277:0.0031168123799400482] [-0.0078147472188967518:0.020374255684916329] [0.032268132680319202:0.043502953171852342] [0.015097302086096491:0.054171152475466222] [-0.04701211350511246:-0.00040270023633698544] [-0.0029940048724213784:0.046539671287628183] [-0.0062851214715375844:0.025733419485300665] [-0.009790870505319349:0.030279931008469981] [-0.0065877954258790044:0.027177788445300249] [-0.037315645241086368:-0.024045662847725462] [-0.053620902557736619:-0.00052861991134856934] [0.03245701917074309:0.069827771539907948] [-0.014244365859001219:0.043402161406138881] [-0.037259883337806346:-0.0066461579173640178] [-0.041332380068156038:0.0054274458426531716] [-0.047673373490140683:0.01305388681600173] [-0.006655537501327408:-0.0012010837940122881] [-0.04881748917563962:0.011147141102829329] [0.02476246369796244:0.047793733223370716] [-0.01900072078867978:-0.0036733453865748639] [-0.0038821738800639575:0.021053343721192431] [0.00097544032897217377:0.027001020274521316] [-0.031133471516974376:0.028096001048386547] [-0.015329147432396967:-0.0064420705526403218] [-0.010797473373814082:0.027203913383627199] [-0.043738921860887861:-0.00021675248339681562] [0.004450776414310814:0.020689596283968686] [-0.00084526391896098713:0.016899692846596193] [-0.024451433832670979:-0.011645686390739882] [0.025824655919135915:0.061213782467147995] [-0.0059791878321774428:0.014975351533343258] [-0.052298358781446598:-0.0082556661055352351] [0.0019665649612511252:0.0082358741799825625] [-0.018230549033055606:0.055103451270399138] [-0.030277739032054933:0.014689339077530218] [-0.0071942748789982358:0.0061947875814334485] [-0.0055465923043668611:0.012820824076514199] [0.032510634725094419:0.047349591964889179] [0.010778318734232937:0.018197323690084782] [-0.034759278801639613:0.026696135015878208] [-0.015304520977579207:0.016787143294968613] [0.0042876748439567378:0.023329237451127163] [-0.012566692343516487:0.014922677525167127] [-0.015105486611470943:0.054091745478535923] [0.025308426289809696:0.088002639990629794] [0.050261848193878383:0.076960316884291169] [-0.030702692270575271:0.015032165120683921] [-0.0064783489175199785:0.0056313269781418001] [-0.020621890756457418:0.0074608239085920741] [-0.058158394895837795:-0.037665701930883533] [-0.044813611440662308:0.013416523759564267] [0.0050122837467091678:0.023806666870536175] [0.0010251859323967781:0.058514464384334684] [-0.033617813868330855:-0.01836991931802285] [0.0026355688672444508:0.052886567956756038] [-0.031435024015108295:-0.0093721592791554016] [-0.023511268503647986:-0.012462885584404136] [0.073283391338443804:0.09975951499842646] [-0.004976513924310315:0.02236050477605404] [0.019918007937033522:0.030230009206336596] [-0.019807937894065583:0.068477281313315805] [-0.019970523377414773:0.050844237377165889] [-0.018405442018622979:-0.004691228853179903] [-0.0057112203755241486:0.0025272634772112593] [-0.033953647935165164:0.0035818286339863513] [-0.073255588489905418:-0.0093661380965799988] [-0.047525809965690932:0.033879734477262564] [0.025563564986211419:0.054434447716814716] [-0.041382384093981359:-0.0090985793771744192] [0.025987653556758659:0.064252952604990601] [-0.0083532326136099965:0.032413401375664667] [0.032126169989830984:0.082042457543047426] [-0.016927539187051397:0.010359928025273217] [0.020926551902185408:0.048721336283081784] [0.022641636460098227:0.036243353281918779] [-0.0035277886918798004:0.021084381241242893] [-0.015977914751849013:0.023132422225229463] [-0.032230949426629754:0.011094126135795142] [-0.026570677457572967:0.0029335763681313525] [-0.0080122823600349696:0.033590154910101616] [-0.013619817733995293:0.015807388644992107] [-0.025908729346027864:-0.004627366498139703] [-0.055997450227480906:-0.041017388782647525] [0.026729517625077113:0.037619380686817319] [-0.016643128118531227:0.0037088595615525272] [-0.027085935469592242:0.036992299996865777] [-0.0031747271640157003:0.028565265266576656] [0.0010579111711322537:0.032939212761224808] [-0.044699775461124747:-0.010639483603118553] [-0.048902534377711492:-0.023165028777096572] [-0.042562290599596667:-0.018236418487934947] [0.0032158286631013815:0.062161529576917798] [0.0071133423668175554:0.027725246167219518] [0.017909707102455468:0.04181598334611239] [-0.024779772250012183:0.0077602449494758906] [-0.026551486827488334:-0.005397553569938646] [-0.022009079079724075:0.012835747197270968] [-0.0047162748717776782:0.0064706107758638661] [0.019739654430946486:0.036206151868044621] [-0.050938306427004358:-0.0070781826380697487] [-0.040433409611866741:-0.022839439337683606] [0.036352991929039472:0.054280591558429639] [0.012355993978187946:0.068379804160679319] [-0.023902647716100296:-0.003309957732323429] [-0.027569787540054402:0.0018280720659654207] [-0.020924548216803378:0.028079283374321647] [0.016150159163109534:0.072423224815109197] [-0.0047908718972698335:0.011236124062500862] [-0.0350798410563537:0.020773816012637156] [-0.011067768185121004:0.0036324495838523391] [-0.037584177358305063:-0.020594921538773025] [-0.024765939782610422:0.027215632340325768] [0.0053892212866159502:0.035394799232086695] [0.025041822149206156:0.048620961785977176] [-0.031916746687895799:0.016502920775188272] [-0.029059136133075807:0.0063723568223003398] [-0.017023600043835421:-0.0027216466210337096] [-0.01996587930753858:0.030538442932013517] [0.0045324265533295861:0.017731183638806471] [-0.058243607347946424:0.0036959880249780655] [-0.043718974636749092:-0.00016205945741796528] [-0.015930528270049416:-0.0018832873898710261] [-0.022255676382011393:-0.012943860869300553] [-0.0070360317116514009:0.046097692353215827] [-0.015452558206527517:0.025974104260032875] [0.0091198024780818187:0.04911023370105258] [-0.050882626533176045:-0.012791566154744928] [0.0029756967408750773:0.028203763448040996] [-0.0021254446887701874:0.0085172204064134695] [-0.031347074025681008:-0.010579516738861256] [0.01600532681236749:0.026296552078832681] [-0.0035660531904510382:0.020303098682341644] [-0.056056396521048012:-0.035372010881200712] [-0.13164813747914844:-0.012979212185760749] [-0.029686986650891201:0.017575178726567466] [-0.039012577566685386:-0.011228781578041936] [-0.058882725712158891:-0.023994840136960138] [0.025207581794867855:0.072071084672526237] [-0.026130927641141055:-0.017864593901550499] [0.015595513686277108:0.035626448351674299] [0.012695019913832695:0.036507608787675741] [-0.022017744851154764:0.034638982720973127] [-0.00037441984273055263:0.020280958317334494] [-0.0085760047574339401:0.032653494854965812] [0.0012592729822896861:0.021110129911337039] [-0.0147728891273979:0.011097200478715232] [-0.032785733329813119:-0.01377968677408686] [-0.074060164076484178:-0.021441852975622185] [0.0086897854600705982:0.054738923232864188] [-0.030160000265847177:0.0077895993110005113] [-0.030182345312420828:-0.0039376829298470167] [-0.03180112062898046:-0.019940962513865981] [-0.013327017538091028:0.010246650856287922] [-0.0082849259648565075:0.035489325049421774] [-0.024596923093100083:0.013776521583527442] [0.0029740121257252209:0.037279876443359762] [-0.026213859796367523:0.015812688455042787] [-0.0064689798950295658:0.024233358173889222] [-0.011281369771950597:0.033219038332250303] [-0.021564180078382487:0.00046745089822664622] [-0.0098403015305266947:0.010306103254937526] [-0.040072008107202781:0.0050237139016026796] [-0.056386312730643554:0.042847857184125752] [-0.017215060424674737:0.00081707565469805662] [-0.064701706886136703:-0.0099880163091691874] [-0.045330106573924597:0.014217362363512715] [0.020969823848451301:0.036323904569334889] [-0.043223093306658272:-0.026626984767625785] [-0.039300433359766879:0.010001840279847449] [-0.00061604649144075189:0.019876222299091549] [-0.020294782726509676:-0.0058733604545397377] [0.0029652013324436674:0.010200868761093523] [-0.014328860729067024:0.030180902830360613] [-0.0066374391492673851:0.01561257391211917] [-0.01122668480074138:0.010127105736873893] [-0.023729239763647252:0.011217917427421824] [0.0026749658170195801:0.012732292688503146] [-0.020175721088941299:-0.0095864735864198466] [-0.023360946393366513:-0.00060561045798390451] [-0.043091438915021693:-0.011950753261063546] [-0.034212815195805019:0.049229030964244504] [-0.00090454142355621497:0.038200013668194456] [-0.080891935204807267:-0.015016596523450543] [-0.05503685991278983:-0.0074034965657213342] [0.00080452870526988404:0.030020551087259019] [-0.011352101815751506:-0.0046162393225280991] [-0.029437665000547945:0.035186633878973771] [-0.036580752251907864:-0.019471558278864164] [-0.0069944739321720932:0.0036650726233591912] [-0.035387732850246913:-0.019388893656109303] [-0.038836737235177096:0.014749641021681387] [-0.012143854603261063:-0.0013990497567718727] [-0.050499397396784072:-0.017491015581942569] [0.0064416821568942205:0.032973993855145461] [-0.017133515369332733:0.010323456280711012] [-0.059120250749823577:-0.039170474311139153] [-0.054418738628068085:-0.024285279518208719] [0.022535919016247685:0.045071573732912359] [-0.018252796834245823:-0.006341878777960136] [-0.048914592720318437:-0.005287754771584499] [-0.020897341599980749:-0.0050265903062494529] [-0.020096529647006339:0.014381252719593122] [-0.015557151417854156:0.002744069056868212] [0.0020353493242583945:0.0095389705744522383] [0.011221221109235643:0.039886359974227702] [-0.0012160252978671803:0.039393656085472573] [-0.0086359229001072586:0.0042817330033476974] [-0.043793314804825671:0.0089216361103336469] [0.0013467349393591873:0.017185017792217799] [-0.015246235679685532:0.00010097674499787409] [-0.0091193784549526823:0.01562978618819871] [-0.0089705204289073758:0.014549562423282448] [-0.0073367485639269786:0.0052117089013790615] [-0.0087089688084394344:0.00014430472392564338] [-0.023730742398858071:-0.003626156985436588] [-0.031078255687461878:-0.01644854383886922] [-0.058441012742958612:-0.014767701212398635] [-0.0054306606553304083:0.033064318787233239] [0.0098894349323404053:0.041848005078555565] [-0.0025189147955953142:0.061700171523791737] [0.021494367771216646:0.038565475227138012] [0.0038531042474851977:0.024532354705219722] [-0.019687586290389913:0.0016717809905661058] [-0.052444995999440989:0.015325464166225693] [-0.036644026619495881:-0.00044878538691379901]
tree_sizes=959 1174 1180 1179 1287 1179 1182 1285 1181 1279 1284 1293 1178 1185 1288 1178 1294 1292 1177 1182 1183 1077 1295 1284 1289 1292 1283 1182 1070 1081 1502 1292 1290 1292 1182 1184 1293 1408 1190 1178 1405 1196 1298 1192 1193 1195 1303 1194 1300 1300 1419 1194 1309 1310 1534 1309 1306 1424 1310 1095 1316 1095 1430 1315 1537 1434 1308 1204 1206 1206 1317 1319 1322 1206 1425 1324 1204 1430 1319 1539 1211 1435 1213 1316 1212 1331 1327 1547 1328 1552 1556 1333 1334 1218 1329 1451 1222 1223 1557 1561

Tree=0
num_leaves=8
num_cat=0
split_feature=44 997 99 447 447 635 38
split_gain=66.0279 15.0289 14.785 10.0948 10.2859 5.7055 0.720161
threshold=-0.057260362531327651 -0.01415490340634612 0.017780691094385265 0.018670157545259688 0.017162245247280893 0.039897555544823417 0.023905589488370526
decision_type=2 2 2 2 2 2 2
left_child=2 3 -1 4 -2 6 -3
right_child=1 5 -4 -5 -6 -7 -8
leaf_value=-0.46585154903820408 -0.80209575156669655 -0.86582831283026662 -0.67423105185295018 -0.85872813359135458 -0.59815155552327104 -0.78772634120223095 -0.91197947788319722
leaf_weight=6.500377804040907 4.5502644628286308 4.333585202693949 7.1504155844449997 5.6336607635021201 5.416981503367424 5.6336607635021201 15.384227469563482
leaf_count=30 21 20 33 26 25 26 71
internal_value=-0.765468 -0.828956 -0.575003 -0.751732 -0.691257 -0.876479 -0.901836
internal_weight=0 40.9524 13.6508 15.6009 9.96725 25.3515 19.7178
internal_count=252 189 63 72 46 117 91
shrinkage=1


Tree=1
num_leaves=10
num_cat=0
split_feature=44 997 99 790 440 635 481 14 0
split_gain=51.2954 12.9645 9.95732 8.56412 13.3848 5.17476 0.733472 0.000271376 3.55271e-15
threshold=-0.057260362531327651 -0.01415490340634612 0.017780691094385265 -0.026659104844502155 -0.0071189481752652007 0.039897555544823417 0.014042714871887263 -0.021414654128844277 -0.013637268715800401
decision_type=2 2 2 2 2 2 2 2 2
left_child=2 3 -1 -2 -5 6 -3 8 -8
right_child=1 5 -4 4 -6 -7 7 -9 -10
leaf_value=0.24526713276550016 -0.10145086409123701 -0.092691936329417191 0.079424624659808873 -0.04352527014892392 0.17767809216255603 -0.020207436223880972 -0.14017282897709146 -0.14113069570163878 -0.14017282897709146
leaf_weight=7.1073697507381421 4.6631148606538764 4.1289249062538245 7.379130944609642 5.8279878795146933 5.155047625303264 5.5874682366847983 6.3382067233324042 4.1289249062538138 4.0891656279563895
leaf_count=30 22 20 33 27 23 26 31 20 20
internal_value=0 -0.058889 0.16079 0.0120923 0.0602997 -0.104643 -0.129893 -0.140445 -0.140173
internal_weight=0 39.9188 14.4865 15.6462 10.983 24.2727 18.6852 14.5563 10.4274
internal_count=252 189 63 72 50 117 91 71 51
shrinkage=0.1


Tree=2
num_leaves=10
num_cat=0
split_feature=44 997 776 96 596 559 999 1019 700
split_gain=40.872 11.2154 9.36542 7.59399 6.73656 4.91379 1.77616 0.00446602 0.000859565
threshold=-0.057260362531327651 -0.01415490340634612 -0.0010542323549703979 0.0028337534602498392 0.021102545261481285 -0.014800494834667209 -0.018535026106732719 0.032467554456509708 0.018649468420371112
decision_type=2 2 2 2 2 2 2 2 2
left_child=2 3 -1 4 -2 -3 -7 8 -8
right_child=1 5 -4 -5 -6 6 7 -9 -10
leaf_value=0.20578355304880819 -0.020155569250590602 -0.0028830555316658674 0.045032133992860601 -0.078469588855695577 0.14662846812612065 -0.061355338416211228 -0.13695353216366959 -0.13966922140488899 -0.13510304570458997
leaf_weight=8.8170105367898923 4.7317760437726921 4.3286424428224555 6.1537557095289221 5.9293181449174872 4.9606274515390396 3.9433197379112253 3.938251152634626 4.0378993749618539 6.9225156158208847
leaf_count=37 22 21 26 28 22 20 20 20 36
internal_value=0 -0.0548118 0.139706 0.0106727 0.0652055 -0.0989617 -0.121034 -0.13683 -0.135774
internal_weight=0 38.7923 14.9708 15.6217 9.6924 23.1706 18.842 14.8987 10.8608
internal_count=252 189 63 72 44 117 96 76 56
shrinkage=0.1


Tree=3
num_leaves=10
num_cat=0
split_feature=44 997 99 737 313 635 375 237 712
split_gain=32.8969 9.73917 7.5239 7.02716 7.35186 4.69014 0.814855 0.000919049 0.00038722
threshold=-0.057260362531327651 -0.01415490340634612 0.017780691094385265 0.0031479569771666713 0.023116735951495979 0.039897555544823417 -0.0070423818488542919 0.0014471892902327857 -0.013937908930131386
decision_type=2 2 2 2 2 2 2 2 2
left_child=2 3 -1 -2 -5 6 -3 8 -8
right_child=1 5 -4 4 -6 -7 7 -9 -10
leaf_value=0.19457809962559969 -0.098198510493117203 -0.07859723255587496 0.054260995546356189 0.11440038835395466 -0.052430738737636845 -0.012860228452285362 -0.13198113711524281 -0.13298989541223569 -0.13062982253369823
leaf_weight=7.4786603003740293 4.3647645413875535 3.7012819498777398 7.8142732679843903 6.9858050346374494 4.2475129961967468 5.4138008952140799 3.6685566902160636 4.2816756963729867 5.0253158360719743
leaf_count=30 21 20 33 31 20 26 20 23 28
internal_value=0 -0.0510159 0.12288 0.0094797 0.0513186 -0.0937316 -0.119985 -0.131791 -0.1312
internal_weight=0 37.6887 15.2929 15.5981 11.2333 22.0906 16.6768 12.9755 8.69387
internal_count=252 189 63 72 51 117 91 71 48
shrinkage=0.1


Tree=4
num_leaves=11
num_cat=0
split_feature=44 230 997 116 966 1005 433 647 635 125
split_gain=26.8752 8.55512 9.20728 7.94162 11.973 7.35101 1.67502 0.279031 0.025518 0.000394608
threshold=-0.057260362531327651 0.0081907663289784143 -0.01415490340634612 0.02783201053799466 -0.035509073024294166 -0.0029835285459392214 -0.019221350942591472 0.007330633770129818 0.039418065950260886 0.0089804590996550079
decision_type=2 2 2 2 2 2 2 2 2 2
left_child=5 2 3 4 -2 -1 -4 -8 9 -9
right_child=1 -3 6 -5 -6 -7 7 8 -10 -11
leaf_value=0.026894426046659755 0.16502275930981095 0.085901445314241903 -0.048433881503742636 -0.11579656519822908 -0.063665843317477933 0.16757429499941448 -0.098987895699903627 -0.1288454279402895 -0.13797278354836506 -0.12744425396784906
leaf_weight=6.2845430225133887 4.5801541656255713 4.2452044486999503 3.6044099777936909 4.1680723279714575 4.5773132890462831 9.0821931362152082 3.4225926995277485 3.9884487092494947 3.9283158481121054 4.0517884790897369
leaf_count=26 20 20 20 21 21 37 20 23 20 24
internal_value=0 -0.0475632 -0.0650931 -0.0013686 0.0507139 0.11004 -0.109796 -0.124167 -0.131367 -0.128139
internal_weight=0 36.5663 32.3211 13.3255 9.15747 15.3667 18.9956 15.3911 11.9686 8.04024
internal_count=252 189 169 62 41 63 107 87 67 47
shrinkage=0.1


Tree=5
num_leaves=10
num_cat=0
split_feature=44 997 99 67 28 559 999 1019 244
split_gain=22.0527 7.29435 6.40493 5.88901 10.8987 4.39367 1.86077 0.00538081 0.00163134
threshold=-0.057260362531327651 -0.01415490340634612 0.017780691094385265 0.033507914109651545 0.024056484875234655 -0.014800494834667209 -0.018535026106732719 0.032467554456509708 -0.0089855251841179564
decision_type=2 2 2 2 2 2 2 2 2
left_child=2 3 -1 -2 -5 -3 -7 8 -8
right_child=1 5 -4 4 -6 6 7 -9 -10
leaf_value=0.16628135265508726 -0.086786810206536516 0.0078516943632307538 0.03711126270315146 0.14933891279238623 -0.051754274347123888 -0.043479710848516213 -0.12397930171203811 -0.12966019678521243 -0.12677424766948908
leaf_weight=7.3608170002698889 4.6600183248519853 4.1052169650793067 8.022671699523924 5.3347910642623884 5.4468681514263153 3.4703453928232166 5.6142802983522371 3.4665219485759744 3.3251866251230338
leaf_count=30 22 21 33 23 27 20 36 20 20
internal_value=0 -0.0444726 0.0989176 0.00714722 0.0477471 -0.0843643 -0.108209 -0.126316 -0.125019
internal_weight=0 35.4232 15.3835 15.4417 10.7817 19.9816 15.8763 12.406 8.93947
internal_count=252 189 63 72 50 117 96 76 56
shrinkage=0.1


Tree=6
num_leaves=10
num_cat=0
split_feature=44 230 464 356 1002 1005 591 621 127
split_gain=18.252 6.93189 7.74862 9.03496 7.63187 6.06905 2.45611 0.0264288 0.00982518
threshold=-0.057260362531327651 0.0081907663289784143 -0.022197335931956601 0.013119466193285498 0.0063645807417219268 -0.0029835285459392214 -0.0075680609613232317 -0.025706067635049956 -0.016116512705582512
decision_type=2 2 2 2 2 2 2 2 2
left_child=5 2 3 6 -5 -1 -2 -4 -9
right_child=1 -3 7 4 -6 -7 -8 8 -10
leaf_value=0.014820631521635841 -0.13027806502900882 0.076920560433578269 -0.13633180710674933 0.11844039894407082 -0.05540104875915948 0.14297776355215125 -0.024728637634982183 -0.12942024122624537 -0.12161678693487749
leaf_weight=6.301046058535575 6.1094931364059439 4.317981854081153 3.6930615156888962 5.8099458217620832 4.4670044481754303 8.9350189566612226 3.4493394494056728 3.4121700823307037 3.060860753059389
leaf_count=26 36 20 20 29 23 37 20 20 21
internal_value=0 -0.0415436 -0.0585934 -0.0222111 0.042878 0.0899769 -0.0921902 -0.129582 -0.12573
internal_weight=0 34.3199 30.0019 19.8358 10.277 15.2361 9.55883 10.1661 6.47303
internal_count=252 189 169 108 52 63 56 61 41
shrinkage=0.1


Tree=7
num_leaves=11
num_cat=0
split_feature=44 230 997 718 995 99 590 668 702 684
split_gain=15.1117 7.35344 7.50274 5.93164 18.2483 5.74498 4.28036 0.284525 0.0151867 0.00100347
threshold=-0.057260362531327651 0.0086763551589694211 -0.013810221851394027 0.0037801106514633097 -0.039408782453279993 0.017780691094385265 -0.023399745733801675 -0.031557200683748406 0.021450027817817331 -0.0086987721832014996
decision_type=2 2 2 2 2 2 2 2 2 2
left_child=5 2 3 -2 6 -1 -5 8 9 -4
right_child=1 -3 7 4 -6 -7 -8 -9 -10 -11
leaf_value=0.14823720047461941 -0.10164220894820034 0.098121045204126414 -0.12195122663619827 0.01167694242430593 0.19068869151635651 0.024495723268955678 -0.13465872004952012 -0.087920310000160123 -0.12931086034524372 -0.1193673658155487
leaf_weight=6.991944044828414 5.2983565628528622 3.5101699382066718 3.3773039132356635 3.8431889563798896 4.3139957785606375 8.0967782884836179 4.1651430279016486 2.9146117866039303 3.2000591605901718 2.7083533406257621
leaf_count=30 29 16 23 20 19 33 23 20 19 20
internal_value=0 -0.0387833 -0.054898 -0.0131608 0.0248844 0.0818361 -0.0644324 -0.115178 -0.123734 -0.120801
internal_weight=0 33.3312 29.821 17.6207 12.3223 15.0887 8.00833 12.2003 9.28572 6.08566
internal_count=252 189 173 91 62 63 43 82 62 43
shrinkage=0.1


Tree=8
num_leaves=10
num_cat=0
split_feature=501 413 615 846 792 60 189 161 846
split_gain=13.9325 14.2053 9.20631 8.47065 7.61047 5.07314 4.51855 0.258093 0.0805273
threshold=-0.0017409267302706778 -0.011123787989967262 0.0033903730551125954 0.0014151995216531907 -0.0037939714588790638 -0.017913804246203108 0.00077155141400631934 -0.024069593465490816 -0.0012210006397095901
decision_type=2 2 2 2 2 2 2 2 2
left_child=1 2 3 4 -1 -2 -4 8 -7
right_child=5 -3 6 -5 -6 7 -8 -9 -10
leaf_value=0.049009711059728053 0.01527888040018374 -0.10174313306904631 0.18796953392671439 0.12582070065547771 -0.11749649370459639 -0.12290365620564184 0.061165995490067661 -0.098810710213657671 -0.14438044342820103
leaf_weight=5.5459399372339213 3.5398435592651358 6.3323638737201717 6.4666217938065511 4.8021699786186209 5.4353844821453112 3.2238295823335639 4.9699984043836594 2.8388672396540633 3.8080748543143272
leaf_count=27 20 37 28 23 31 22 23 21 20
internal_value=0 0.0331608 0.0645442 0.0150397 -0.0334052 -0.0874276 0.132865 -0.12426 -0.134534
internal_weight=0 33.5525 27.2201 15.7835 10.9813 13.4106 11.4366 9.87077 7.0319
internal_count=252 169 132 81 58 83 51 63 42
shrinkage=0.1


Tree=9
num_leaves=11
num_cat=0
split_feature=659 615 846 872 439 384 585 340 997 1012
split_gain=12.078 12.485 10.3909 6.97908 5.3794 4.88231 4.52442 0.53843 0.0795205 0.00137282
threshold=-0.0085024733349528311 0.0033903730551125954 0.0014151995216531907 0.040666194886860983 -0.010680525673562934 0.013322343909503086 -0.01522723648665353 1.0000000180025095e-35 -0.014086452008081238 -0.0015482886864446224
decision_type=2 2 2 2 2 2 2 2 2 2
left_child=1 2 3 7 -3 -5 -2 -1 -8 -10
right_child=6 4 -4 5 -6 -7 8 -9 9 -11
leaf_value=-0.10162485247221403 0.0027041404268881874 0.16829732180921936 0.11121133526875762 -0.073163387579986291 0.034446516443755425 0.077601861614604847 -0.13820105296795063 -0.15548527671682311 -0.1198710900565369 -0.11662864647276361
leaf_weight=4.1381127014756265 4.0132391452789298 6.9546443521976471 4.8848053216934195 4.0838224813342077 5.283729135990141 4.5311725586652756 3.290720894932746 3.3656114488840103 2.8361369073390952 2.41993048787117
leaf_count=29 21 31 23 23 26 21 19 18 21 20
internal_value=0 0.030224 -0.0165568 -0.0552772 0.110509 0.00613362 -0.084883 -0.125783 -0.126011 -0.118378
internal_weight=0 33.2419 21.0035 16.1187 12.2384 8.615 12.56 7.50372 8.54679 5.25607
internal_count=252 171 114 91 57 44 81 47 60 41
shrinkage=0.1


Tree=10
num_leaves=11
num_cat=0
split_feature=501 390 970 38 831 60 861 161 552 846
split_gain=10.3895 11.8287 6.14401 6.79915 5.05649 4.17825 3.73201 0.21308 0.0688918 0.0416763
threshold=-0.0017409267302706778 -0.030001363680804683 0.0068554848148864199 0.020996857055572502 0.0045749028296752205 -0.017773412105503161 -0.013754690084782915 -0.024069593465490816 -0.028640224117682574 -0.0012210006397095901
decision_type=2 2 2 2 2 2 2 2 2 2
left_child=1 6 4 -4 -3 -2 -1 9 -6 -7
right_child=5 2 3 -5 8 7 -8 -9 -10 -11
leaf_value=0.052118778476606668 0.008037622197612589 0.015875405163431271 -0.039934452347280686 0.13049665620252313 -0.13941458858946526 -0.11960635950911047 0.16084347141678387 -0.093947053482065807 -0.11839378555763554 -0.13632899731526679
leaf_weight=6.6487676203250885 3.7616960406303397 3.8449325487017685 5.136649437248705 4.3004820197820663 3.3909733891487086 2.7316386699676505 6.0116398781537956 2.4910678118467322 2.8859849721193349 3.2795969694852829
leaf_count=33 22 22 25 20 19 21 27 21 23 19
internal_value=0 0.0284342 -0.0203141 0.0377307 -0.0744321 -0.0797145 0.103745 -0.118539 -0.12975 -0.12873
internal_weight=0 32.2194 19.559 9.43713 10.1219 12.264 12.6604 8.5023 6.27696 6.01124
internal_count=252 169 109 45 64 83 60 61 42 40
shrinkage=0.1


Tree=11
num_leaves=11
num_cat=0
split_feature=659 615 846 872 375 585 40 734 997 1012
split_gain=9.32926 9.4285 7.90711 5.70042 4.49942 4.1924 3.88997 0.450632 0.0603633 0.00111447
threshold=-0.0085024733349528311 0.0033903730551125954 0.0014151995216531907 0.040666194886860983 -0.0055305460173852962 -0.01522723648665353 -0.038100108870422776 0.0032478776208787257 -0.014100358806443935 -0.0015482886864446224
decision_type=2 2 2 2 2 2 2 2 2 2
left_child=1 2 3 7 -3 -2 -5 -1 -7 -10
right_child=5 4 -4 6 -6 8 -8 -9 9 -11
leaf_value=-0.13748191222740716 0.0050773950751319616 0.022831179983787468 0.095161081307742562 0.076483073722166797 0.1482089664961975 -0.13364838672606824 -0.060511424238998093 -0.083392587668000756 -0.11667448292149951 -0.11358446421440219
leaf_weight=4.4743074327707353 3.932906374335289 4.8312118798494339 4.8883561789989463 3.9433304667472839 7.0233695358037931 2.8692675828933716 4.3693838864564878 2.3488799035549164 2.5045755207538605 2.1858751326799375
leaf_count=29 21 25 23 19 32 18 25 18 21 21
internal_value=0 0.0264312 -0.015413 -0.0511245 0.0971125 -0.0786596 0.00447512 -0.118862 -0.122223 -0.115234
internal_weight=0 31.8788 20.0243 15.1359 11.8546 11.4926 8.31271 6.82319 7.55972 4.69045
internal_count=252 171 114 91 57 81 44 47 60 42
shrinkage=0.1


Tree=12
num_leaves=10
num_cat=0
split_feature=659 615 536 108 881 987 920 316 931
split_gain=8.03196 7.00516 6.74597 5.34652 7.8733 4.24778 1.57313 0.996494 0.211117
threshold=-0.009355647585107341 0.0033903730551125954 -0.021376561449085181 0.029642201021115942 -0.047703959285212615 -0.0033926110894492993 -0.010812831417219419 0.016381263835380366 -0.046896783408983185
decision_type=2 2 2 2 2 2 2 2 2
left_child=1 2 -1 4 -2 8 -4 -5 -6
right_child=3 -3 6 7 5 -7 -8 -9 -10
leaf_value=0.065526561093697422 0.1305406635083779 0.12414149211029596 -0.028822801203431538 -0.068120346328243528 -0.12438120214072278 0.01644752181704737 -0.13037133784509819 -0.14282036556252795 -0.08498330650416519
leaf_weight=7.3757991194725046 3.1788943111896524 7.0415141582489005 3.2522386536002168 2.986350178718566 3.3708674982190132 5.2499065026640892 2.8732710629701614 4.4421617165207863 2.280134417116642
leaf_count=34 15 34 20 23 24 36 20 25 21
internal_value=0 0.0432815 0.00110952 -0.0441497 -0.00793498 -0.0483169 -0.0764558 -0.11279 -0.108484
internal_weight=0 20.5428 13.5013 21.5083 14.0798 10.9009 6.12551 7.42851 5.651
internal_count=252 108 74 144 96 81 40 48 45
shrinkage=0.1


Tree=13
num_leaves=10
num_cat=0
split_feature=659 501 390 319 59 289 585 997 1012
split_gain=7.07402 7.24656 7.43287 4.70255 5.57578 5.99855 3.88734 0.0311183 0.000922621
threshold=-0.0085024733349528311 -0.0017409267302706778 -0.031112838758901102 0.0061709668833320542 0.0018165997477891135 0.026623918964561465 -0.01522723648665353 -0.014100358806443935 -0.0015482886864446224
decision_type=2 2 2 2 2 2 2 2 2
left_child=1 2 -1 4 -4 -6 -2 -8 -9
right_child=6 -3 3 -5 5 -7 7 8 -10
leaf_value=0.15594160762272208 0.0080337783025739799 -0.084526726923914178 -0.10951854975467529 0.11677512111407665 -0.03390026544234246 0.10618710661415837 -0.126991372588454 -0.11429891724675419 -0.11129883166742574
leaf_weight=4.8891273885965374 3.8381620571017265 5.1881737560033825 3.8936961963772836 3.9276528880000106 6.9577687159180623 5.451693132519722 2.5404844731092453 2.2397516965866089 1.8901455029845218
leaf_count=24 21 37 25 19 37 29 18 21 21
internal_value=0 0.0230674 0.0452894 0.0185484 -0.00511574 0.0276426 -0.0721467 -0.118283 -0.112926
internal_weight=0 30.3081 25.1199 20.2308 16.3032 12.4095 10.5085 6.67038 4.1299
internal_count=252 171 134 110 91 66 81 60 42
shrinkage=0.1


Tree=14
num_leaves=11
num_cat=0
split_feature=127 915 997 818 987 659 76 604 729 127
split_gain=6.09845 6.34713 6.38136 4.97102 4.27365 4.08916 3.08217 0.821768 0.043949 0.00951628
threshold=-0.018630025837262035 -0.012633589691262137 -0.013810221851394027 -0.01606516122274328 -0.0033926110894492993 -0.009355647585107341 -0.0055416753666497906 -0.025886841037980671 0.0149672010971753 -0.016612170004927745
decision_type=2 2 2 2 2 2 2 2 2 2
left_child=-1 2 3 4 5 -2 7 8 9 -3
right_child=1 6 -4 -5 -6 -7 -8 -9 -10 -11
leaf_value=0.094979071141637061 0.034921078981330782 -0.12078343803962371 -0.099968509704640732 0.1185174990963952 0.076028064157607433 -0.11345017023065054 0.017066374885161998 -0.055211732191709606 -0.13367582741979431 -0.11135180828135215
leaf_weight=5.6272502541542044 3.5212044864892968 2.4185536801815024 3.9968239888548878 5.5411336794495574 5.018158733844758 3.9314759895205498 2.7190810441970816 2.4909030422568312 2.3149574771523476 1.9182686433196066
leaf_count=27 18 19 35 28 28 25 16 20 14 22
internal_value=0 -0.0174392 0.0143408 0.0397058 0.00468762 -0.0433485 -0.0764052 -0.104204 -0.12255 -0.116612
internal_weight=0 33.8706 22.0088 18.012 12.4708 7.45268 11.8618 9.14268 6.65178 4.33682
internal_count=252 225 134 99 71 43 91 75 55 41
shrinkage=0.1


Tree=15
num_leaves=10
num_cat=0
split_feature=390 67 915 583 508 127 880 858 931
split_gain=5.52271 6.01422 5.00769 7.77465 3.17168 4.51766 1.64738 0.379869 0.228253
threshold=-0.031112838758901102 0.033507914109651545 -0.012694574678107745 0.0053801477845789591 0.029096964269376774 -0.017180706609841122 -0.021139074726679953 0.024830075291130651 -0.046048048586124136
decision_type=2 2 2 2 2 2 2 2 2
left_child=-1 8 4 6 -3 -6 7 -4 -2
right_child=1 2 3 -5 5 -7 -8 -9 -10
leaf_value=0.086420390736244704 -0.11763884860519025 0.12256260871108766 -0.078092773786608768 0.090815301129579959 0.10636700589117461 -0.038107077480589419 -0.016259140631159113 -0.12849591614034314 -0.077312441391891612
leaf_weight=6.0252902284264556 4.3343161791563034 3.8879779800772658 2.1797734200954411 3.2870123088359824 3.42327906936407 5.8855420425534239 2.3801341280341193 4.7615890577435493 2.0757754221558562
leaf_count=33 38 19 22 17 17 34 16 36 20
internal_value=0 -0.0178877 0.00364679 -0.041421 0.0467056 0.0150226 -0.0880511 -0.112668 -0.10458
internal_weight=0 32.2154 25.8053 12.6085 13.1968 9.30882 9.3215 6.94136 6.41009
internal_count=252 219 161 91 70 51 74 58 58
shrinkage=0.1


Tree=16
num_leaves=11
num_cat=0
split_feature=501 390 60 970 234 615 132 997 390 384
split_gain=5.06041 6.23071 4.66798 4.61073 5.73707 4.13013 1.11131 0.162928 0.0375131 0.0367913
threshold=-0.0017409267302706778 -0.031112838758901102 -0.017934069841137382 0.0068554848148864199 -0.030796418620735781 0.0040379212411135222 -0.0069517686730930532 -0.013248154509198307 -0.027589076288885846 0.01351187620357676
decision_type=2 2 2 2 2 2 2 2 2 2
left_child=1 -1 -2 5 -5 6 8 9 -3 -4
right_child=2 3 7 4 -6 -7 -8 -9 -10 -11
leaf_value=0.12227299544487268 0.039020952866499876 -0.13051688715654453 -0.11248138200845506 0.093991620156141292 -0.044690070233900335 0.043395822290695343 -0.035611417330996813 -0.085742725482629262 -0.11278718406159623 -0.13007143636753202
leaf_weight=4.9249103814363471 3.0133482590317726 2.5035933554172525 2.4522913061082363 7.4924825727939606 4.9562152698636037 3.1152916625142097 2.1573204472661063 1.8071397952735404 2.2803625389933586 2.3083769083023071
leaf_count=27 19 17 27 38 27 19 16 22 25 15
internal_value=0 0.020391 -0.0640274 -0.0019042 0.0387781 -0.0522635 -0.0951961 -0.111307 -0.122066 -0.121011
internal_weight=0 27.4302 9.58116 22.5053 12.4487 10.0566 6.94128 6.56781 4.78396 4.76067
internal_count=252 169 83 142 65 77 58 64 42 42
shrinkage=0.1


Tree=17
num_leaves=11
num_cat=0
split_feature=659 615 153 705 60 375 237 680 773 161
split_gain=4.57408 5.03484 4.71502 5.12536 3.38041 3.36101 3.33595 0.530701 0.324938 0.0404599
threshold=-0.0085024733349528311 0.0033903730551125954 0.024197436873233145 -0.0018962892854953275 -0.01748050638704949 -0.0055305460173852962 -0.00059444197123906131 0.070940289651876653 0.022143703997191885 -0.026317611672886349
decision_type=2 2 2 2 2 2 2 2 2 2
left_child=1 2 3 4 -1 -3 -2 8 -6 -8
right_child=6 5 -4 -5 7 -7 9 -9 -10 -11
leaf_value=0.010718903430344366 0.0055675459217394661 0.0043051807831276162 0.090073997198309164 0.06691644791352562 -0.11614992314232503 0.12249028545476617 -0.12827839267730015 -0.14953793906206211 -0.061405012372675573 -0.11012166106406406
leaf_weight=3.1259799674153328 3.8667598180472851 4.0133590251207352 3.4556638002395621 3.3317950367927596 2.5618810206651688 6.0091323629021627 2.2594269067049026 2.6484788209199905 1.8797221370041368 2.686659172177313
leaf_count=19 31 25 20 18 25 32 16 14 18 34
internal_value=0 0.0189458 -0.0141918 -0.0407869 -0.0759126 0.0751648 -0.0640164 -0.114108 -0.0929814 -0.118416
internal_weight=0 27.026 17.0035 13.5479 10.2161 10.0225 8.81285 7.09008 4.4416 4.94609
internal_count=252 171 114 94 76 57 81 57 43 50
shrinkage=0.1


Tree=18
num_leaves=10
num_cat=0
split_feature=600 544 659 615 381 188 441 487 781
split_gain=4.2047 4.07757 5.3571 3.57524 4.19188 4.29832 3.56803 3.54892 1.07353
threshold=0.010207338432743828 0.0078829117509482422 -0.0085546336540219398 0.0033903730551125954 0.017180422267800064 0.014905866487435989 -0.0043839386911094973 -0.016912869310862774 -0.02241885870037726
decision_type=2 2 2 2 2 2 2 2 2
left_child=8 -2 3 4 -3 -6 -7 -5 -1
right_child=1 2 -4 7 5 6 -8 -9 -10
leaf_value=-0.11570368057449126 0.11556525629502352 -0.0994870218050347 -0.12089352348489985 0.13354064595183343 0.097254041157905952 0.050281681190236016 -0.10315799951544442 0.003156207023410094 -0.019688369960856725
leaf_weight=3.511106189340353 3.4404619261622456 4.0590956173837247 3.2256797328591338 4.2094919234514236 4.276602126657961 2.7773199379444158 3.3356315791606868 4.1414203941822034 1.7423420697450627
leaf_count=36 19 31 32 24 25 19 23 25 18
internal_value=0 0.0132522 -0.000273335 0.016792 -0.0133133 0.0203539 -0.0334452 0.0688798 -0.0838595
internal_weight=0 29.4657 26.0252 22.7996 14.4486 10.3896 6.11295 8.35091 5.25345
internal_count=252 198 179 147 98 67 42 49 54
shrinkage=0.1


Tree=19
num_leaves=10
num_cat=0
split_feature=921 99 715 1012 667 734 997 837 651
split_gain=3.81696 5.0503 4.75796 4.54747 4.81895 4.93077 2.84198 2.60108 0.730065
threshold=-0.018948523915189471 0.019429908021621419 -0.025137253426773209 -0.0020316153280125408 -0.024672568971963928 0.0029798527646169031 -0.014454464816959387 0.013064186413744652 -0.0096561035238435528
decision_type=2 2 2 2 2 2 2 2 2
left_child=-1 2 3 4 -2 6 -6 -5 -4
right_child=1 -3 8 7 5 -7 -8 -9 -10
leaf_value=0.11424413459768884 0.15201245572592972 -0.10518873900885913 -0.12886510595784184 -0.11308393142223126 0.09654149247303552 -0.078568329373142315 -0.01815417198354595 0.03789442061618304 -0.043981039911236509
leaf_weight=2.6285674571990958 3.6019875556230643 4.8311334736645213 2.3519888035953045 3.2058251351118079 6.5206316187977862 3.5879446975886813 3.2307602167129428 1.7717456333339212 1.7800933420658136
leaf_count=15 18 38 20 38 38 28 24 13 20
internal_value=0 -0.0112829 0.00613183 0.0246874 0.0493768 0.0216623 0.0585414 -0.0593438 -0.0922972
internal_weight=0 30.8821 26.051 21.9189 16.9413 13.3393 9.75139 4.97757 4.13208
internal_count=252 237 199 159 108 90 62 51 40
shrinkage=0.1


Tree=20
num_leaves=10
num_cat=0
split_feature=127 997 99 984 126 705 450 792 915
split_gain=3.39543 3.62009 3.518 3.39499 3.93004 3.29879 2.41166 0.0141215 0.00095518
threshold=-0.018630025837262035 -0.013810221851394027 0.019429908021621419 -0.0073189423003034758 -0.010506483106071269 -0.0018962892854953275 -0.005957057842250201 -0.0041751540699893784 -0.012956561312009852
decision_type=2 2 2 2 2 2 2 2 2
left_child=-1 2 3 4 -2 7 -5 -3 -9
right_child=1 5 -4 6 -6 -7 -8 8 -10
leaf_value=0.07627786334084935 0.10637481676674132 -0.11894196952207688 -0.095905808601283837 0.027724427832091232 -0.013677305661663895 0.050438616049748475 -0.097777588295603748 -0.11002638300567801 -0.10683827644635842
leaf_weight=4.7895816937088957 6.5521034970879608 1.8174262903630727 2.8637730255722991 3.00871517136693 4.6706256717443466 1.6145582608878637 3.1177857071161261 1.6707026064395902 2.1480223797261724
leaf_count=27 39 17 18 20 33 11 27 22 38
internal_value=0 -0.0149665 0.00677832 0.023728 0.0564121 -0.075585 -0.0361437 -0.111686 -0.108233
internal_weight=0 27.4637 20.213 17.3492 11.2227 7.25071 6.1265 5.63615 3.81872
internal_count=252 225 137 119 72 88 47 77 60
shrinkage=0.1


Tree=21
num_leaves=9
num_cat=0
split_feature=600 76 415 111 501 381 195 127
split_gain=3.04256 3.13994 4.94737 4.50158 2.88732 2.80167 2.09586 1.13429
threshold=0.010207338432743828 -0.0078986036984677339 0.00026010410017849575 0.0022678124337034678 -0.0018255272246977003 0.017616580393920542 0.0091017568881190791 -0.01416575212071673
decision_type=2 2 2 2 2 2 2 2
left_child=7 -2 3 -3 5 -5 -7 -1
right_child=1 2 -4 4 -6 6 -8 -9
leaf_value=-0.11275818157107512 -0.060570519205126197 -0.10697078866202497 0.12812127955686081 -0.024519557784232263 -0.063137215331805441 0.021238924556334735 0.12253844661851432 -0.0056335386040866136
leaf_weight=3.0150174647569656 4.9511292651295689 2.9847865030169549 4.0018820464611045 3.6261147819459536 2.8388274013996009 3.4843666180968267 4.9354317113757133 1.4705069884657884
leaf_count=37 35 33 23 23 26 26 32 17
internal_value=0 0.0113407 0.0276196 0.00511222 0.0275878 0.0489688 0.0806176 -0.0776391
internal_weight=0 26.8225 21.8714 17.8695 14.8847 12.0459 8.4198 4.48552
internal_count=252 198 163 140 107 81 58 54
shrinkage=0.1


Tree=22
num_leaves=11
num_cat=0
split_feature=390 339 28 419 915 606 357 390 605 284
split_gain=2.77541 4.17533 3.33538 3.8024 4.19126 2.32724 1.34297 0.247578 0.129025 0.0130536
threshold=-0.031112838758901102 -0.011132273039658169 0.022530348535728474 -0.072100137883334456 -0.014604057457387487 -0.024236281467840345 0.036893940577233837 -0.029347607273117447 -0.0022904288083752627 -0.025645569593751746
decision_type=2 2 2 2 2 2 2 2 2 2
left_child=-1 7 -3 -4 -5 6 8 -2 -6 -10
right_child=1 2 3 4 5 -7 -8 -9 9 -11
leaf_value=0.068812798685586374 -0.11747251636875754 0.083274583923835493 0.075539190598487266 0.098734989930681749 -0.14820554247333773 -0.0016207899520259085 -0.03323221227609556 -0.066269583097225998 -0.1208519355821161 -0.10842385145089456
leaf_weight=4.754065245389941 3.1305999532341957 4.2610488943755653 3.5812849812209704 1.8528822138905621 1.6746727377176363 3.9517275430261813 2.2911179959774017 1.3522174991667295 1.5984912030398923 1.7931991778314036
leaf_count=33 34 31 22 11 9 30 21 18 13 30
internal_value=0 -0.0144154 0.00428304 -0.0158196 -0.0406776 -0.0635187 -0.0967642 -0.102027 -0.125495 -0.114281
internal_weight=0 25.4872 21.0044 16.7434 13.1621 11.3092 7.35748 4.48282 5.06636 3.39169
internal_count=252 219 167 136 114 103 73 52 52 43
shrinkage=0.1


Tree=23
num_leaves=11
num_cat=0
split_feature=715 711 166 430 13 801 390 457 381 931
split_gain=2.6451 3.20161 3.33647 3.28515 2.76313 2.75289 2.17872 1.9641 1.29199 0.0592355
threshold=-0.025137253426773209 0.034937398309294085 0.018859450821908087 0.046014943195636378 -0.0041671215505601376 0.038887321763881898 -0.03058034019926607 -0.020585173612081589 0.018641771660454436 -0.048207600520907237
decision_type=2 2 2 2 2 2 2 2 2 2
left_child=1 -1 4 5 9 7 -5 -4 -2 -3
right_child=8 2 3 6 -6 -7 -8 -9 -10 -11
leaf_value=0.1178333615785723 -0.12278537350032839 -0.11787024982980221 -0.066361269924968005 0.012372857905015664 0.028294055568266058 0.10947424479681374 -0.1108773050482742 0.059938145165431646 -0.0085064080526001361 -0.092890388773257074
leaf_weight=2.5144122615456643 2.4129980169236651 2.7897366136312485 2.1713632233440965 3.718063548207283 2.2252596728503731 5.1243808194994926 2.3349753804504862 2.8440166600048471 1.6767331212759016 1.4389438703656194
leaf_count=13 27 28 20 29 19 32 19 22 17 26
internal_value=0 0.0107792 -0.00110672 0.0231254 -0.0619047 0.0579263 -0.0351712 0.00525796 -0.0759326 -0.10937
internal_weight=0 25.1612 22.6467 16.1928 6.45394 10.1398 6.05304 5.01538 4.08973 4.22868
internal_count=252 208 195 122 73 74 48 42 44 54
shrinkage=0.1


Tree=24
num_leaves=11
num_cat=0
split_feature=384 319 539 67 975 466 689 707 438 997
split_gain=2.52407 2.56333 2.64402 3.15209 3.06705 2.3751 1.93153 1.74009 1.6398 0.00467739
threshold=0.015835107859223312 0.0063662441600504912 0.012957416741758024 0.033507914109651545 0.0073516331886100223 -0.0011576148730850636 -0.014356241466026475 0.012041345523386831 -0.021094014162174202 -0.01415490340634612
decision_type=2 2 2 2 2 2 2 2 2 2
left_child=1 2 3 6 8 -6 9 -4 -5 -1
right_child=-2 -3 7 4 5 -7 -8 -9 -10 -11
leaf_value=-0.11455381933554354 0.10172775493808683 0.07043457015663894 -0.11446741234857541 0.030742430172057595 -0.11274159514269946 0.032411314863648032 0.024548760800293674 -0.0063978006424543626 0.13162691982364824 -0.10704431044686365
leaf_weight=1.6125909648835657 2.1918236687779418 3.4375702403485766 4.1922724097967139 3.9601813703775495 2.0990740582346916 2.4349089097231627 1.5485938042402398 2.3113980516791344 2.7162659987807167 1.7078713290393355
leaf_count=16 15 26 39 32 28 20 15 15 16 30
internal_value=0 -0.0100123 -0.0222578 -0.000496616 0.0286827 -0.0347894 -0.0676785 -0.0760596 0.0717866 -0.110691
internal_weight=0 26.0207 22.5832 16.0795 11.2104 4.53398 4.86906 6.50367 6.67645 3.32046
internal_count=252 237 211 157 96 48 61 54 48 46
shrinkage=0.1


Tree=25
num_leaves=11
num_cat=0
split_feature=127 915 997 915 818 987 951 818 987 382
split_gain=2.34107 2.76347 2.94422 2.36907 2.34954 2.56421 1.60649 1.29761 0.221132 0.0555045
threshold=-0.019602256792484011 -0.012694574678107745 -0.013835000844847694 -0.0091324641002183769 -0.01606516122274328 -0.003444135902149014 -0.0031577525017501226 -0.016462865878864041 -0.00341103309809121 -0.034402550255692874
decision_type=2 2 2 2 2 2 2 2 2 2
left_child=-1 2 4 7 5 6 -2 -3 9 -9
right_child=1 3 -4 -5 -6 -7 -8 8 -10 -11
leaf_value=0.10623121921893926 -0.10162751220577021 -0.002739429313875363 -0.076593794694525333 0.0422267195000922 0.10131036070692377 0.062569422319087964 0.010433740854980536 -0.1325777502218275 -0.072677518733299903 -0.10819029511085075
leaf_weight=1.8833232149481798 2.3204323910176794 1.589932370930909 2.8998936116695431 1.9752850830554907 3.7859562784433374 4.6362162828445426 2.8511598333716397 1.5980905964970582 1.4653839915990841 2.2432354502379899
leaf_count=12 20 14 38 18 25 35 21 10 21 38
internal_value=0 -0.00932591 0.0148819 -0.0543302 0.034396 0.00856602 -0.0398468 -0.0819853 -0.105728 -0.118336
internal_weight=0 25.3656 16.4937 8.87193 13.5938 9.80781 5.17159 6.89664 5.30671 3.84133
internal_count=252 240 139 101 101 76 41 83 69 48
shrinkage=0.1


Tree=26
num_leaves=11
num_cat=0
split_feature=715 659 265 917 632 615 846 750 381 937
split_gain=2.17182 2.48399 3.08552 2.88232 3.01652 2.0452 2.114 2.36788 1.08016 0.170023
threshold=-0.025137253426773209 -0.009355647585107341 0.027735883462889719 0.011949156266993345 -0.010833764280251023 0.0033903730551125954 0.0014151995216531907 0.0026855606453903983 0.018641771660454436 -0.020045376977198413
decision_type=2 2 2 2 2 2 2 2 2 2
left_child=1 5 3 -3 -5 6 7 -1 -2 -6
right_child=8 2 -4 4 9 -7 -8 -9 -10 -11
leaf_value=-0.10267979049296166 -0.12025314728644024 0.075178675568914541 -0.12090485592192866 0.059208675619826005 -0.11413186947338227 0.098908775083885778 0.086164622500349647 0.03827521304596343 -0.011043514595622451 -0.066275571521792961
leaf_weight=2.2417926527559793 2.073744989931583 3.5048724710941297 2.50628710910678 1.8927171025425211 2.2733896169811505 4.1702764555811882 2.4700352475047112 2.5445091295987368 1.6078628189861772 1.1023733764886823
leaf_count=16 27 26 26 15 30 32 17 26 17 20
internal_value=0 0.0102403 -0.0230497 0.00490466 -0.0418453 0.0431021 0.0110296 -0.0277448 -0.0725582 -0.0985041
internal_weight=0 22.7063 11.2796 8.77335 5.26848 11.4266 7.25634 4.7863 3.68161 3.37576
internal_count=252 208 117 91 65 91 59 42 44 50
shrinkage=0.1


Tree=27
num_leaves=10
num_cat=0
split_feature=501 390 60 413 561 970 186 443 384
split_gain=1.90071 3.0836 3.07579 2.0802 2.58231 2.74269 1.942 0.121331 0.00796103
threshold=-0.0017409267302706778 -0.031112838758901102 -0.018049159116746871 -0.011123787989967262 0.005509565160735393 0.0075999055069530331 -0.045788999365837711 -0.037647483854601205 0.013639362809366409
decision_type=2 2 2 2 2 2 2 2 2
left_child=1 -1 -2 4 5 -3 -6 8 -4
right_child=2 3 7 -5 6 -7 -8 -9 -10
leaf_value=0.10151331747777195 0.043520086194672625 -0.11063140894440363 -0.10730981255368136 -0.084929085188512776 -0.0075951033170593794 0.020726761237307906 0.10352170156232564 -0.072864680838818183 -0.11772043937095192
leaf_weight=3.3468455523252532 2.2774876393377781 2.644831560552122 1.4484805390238769 2.6529768854379627 2.7001888565719128 3.9835784435272217 3.7673323526978493 1.0413152799010266 1.4902743250131605
leaf_count=27 17 30 27 36 21 28 27 25 14
internal_value=0 0.0143431 -0.0491614 -0.0041817 0.0121761 -0.0316871 0.0571305 -0.102196 -0.112589
internal_weight=0 19.0958 6.25756 15.7489 13.0959 6.62841 6.46752 3.98007 2.93875
internal_count=252 169 83 142 106 58 48 66 41
shrinkage=0.1


Tree=28
num_leaves=9
num_cat=0
split_feature=127 99 715 855 786 808 615 408
split_gain=1.96906 2.27491 2.73275 2.16653 1.91086 3.42003 1.86237 0.7298
threshold=-0.019602256792484011 0.019429908021621419 -0.025137253426773209 -0.015497472067878472 0.02655760244907111 -0.031893560913113302 0.0034957981915151137 -0.029333516537972969
decision_type=2 2 2 2 2 2 2 2
left_child=-1 2 3 4 -2 -6 -7 -3
right_child=1 7 -4 -5 5 6 -8 -9
leaf_value=0.10269587901202717 0.094772272970366001 -0.031779724029829357 -0.086205261777791448 -0.065077228318916519 0.080032035918172595 -0.10607819157371022 0.013268513565710805 -0.11763174666825481
leaf_weight=1.6936698034405733 4.0342776626348558 1.849989600479603 2.767511634156107 2.4495981074869624 4.1888133473694369 2.3980853762477574 2.8751072138547897 2.13038021698594
leaf_count=12 34 15 39 37 37 29 22 27
internal_value=0 -0.0090791 0.00552298 0.021443 0.0371466 0.0125769 -0.0410067 -0.0777296
internal_weight=0 22.6938 18.7134 15.9459 13.4963 9.46201 5.27319 3.98037
internal_count=252 240 198 159 122 88 51 42
shrinkage=0.1


Tree=29
num_leaves=9
num_cat=0
split_feature=127 734 715 503 987 400 186 230
split_gain=1.7275 2.25806 1.99429 1.93989 1.61372 2.45408 1.08482 0.892223
threshold=-0.018374781957994749 0.0044168083333625307 -0.025137253426773209 -0.010826431298917798 -0.0033926110894492993 0.026521580340357894 -0.04520233340152701 0.0065998507810737014
decision_type=2 2 2 2 2 2 2 2
left_child=-1 2 3 -2 5 7 -7 -5
right_child=1 -3 -4 4 -6 6 -8 -9
leaf_value=0.057663735927615173 -0.058855015118193327 -0.1119240553963697 -0.082747828650684307 -0.11641560660698871 0.083818759168832926 -0.0020374393351359015 0.092616510604829935 -0.0045623838121254551
leaf_weight=4.1001192443072823 3.0305913276970449 2.0914449561387292 2.5924132391810408 1.6477768011391218 3.8602330964058567 2.2829390317201614 2.5783027242869139 1.2572824247181413
leaf_count=33 29 30 38 30 34 25 18 15
internal_value=0 -0.0137959 -0.00189821 0.0124017 0.0309756 0.00470995 0.0481651 -0.0680066
internal_weight=0 19.341 17.2495 14.6571 11.6265 7.7663 4.86124 2.90506
internal_count=252 219 189 151 122 88 43 45
shrinkage=0.1


Tree=30
num_leaves=13
num_cat=0
split_feature=927 710 176 503 571 313 846 571 26 616 140 251
split_gain=1.57854 2.77754 2.54354 1.89502 2.4854 1.99501 1.50775 1.44632 1.72611 0.352395 0.0752007 0.0327257
threshold=0.002447392740862205 0.032370632251235397 0.021860922399503803 -0.011004624395235776 -0.013885859624975678 0.022623989532062832 0.001500634362529802 -0.014426030043524303 -0.038314882755963946 0.020402852768848786 0.053723298283781772 -0.016046056795329316
decision_type=2 2 2 2 2 2 2 2 2 2 2 2
left_child=-1 6 -3 -4 7 -6 10 8 -5 -7 11 -2
right_child=1 2 3 4 5 9 -8 -9 -10 -11 -12 -13
leaf_value=0.10329304410179807 -0.107494287385836 0.10918970197754652 -0.093988768011417465 -0.043820561635943868 0.041294900172820601 -0.11150526200054918 8.9575938220060191e-05 0.11914511028308282 0.085188795376090906 -0.043231892911278172 -0.12773368820898456 -0.081866881435451261
leaf_weight=1.3571471069008136 1.2851856108754875 2.3505384512245646 1.9765822701156164 2.1277026757597923 1.9327362757176096 2.0909982528537516 1.9740608707070348 2.2141127660870561 2.0233616102486849 1.1841406337916849 1.3616007715463636 0.81381786242127718
leaf_count=11 24 20 20 22 21 33 15 14 20 18 10 24
internal_value=0 -0.00793297 0.0131616 -0.003497 0.0119583 -0.0392747 -0.0696492 0.0538762 0.0190627 -0.0868207 -0.109431 -0.0975581
internal_weight=0 21.3348 15.9002 13.5496 11.5731 5.20788 5.43467 6.36518 4.15106 3.27514 3.4606 2.099
internal_count=252 241 168 148 128 72 73 56 42 51 58 48
shrinkage=0.1


Tree=31
num_leaves=11
num_cat=0
split_feature=390 339 28 959 374 315 457 668 746 300
split_gain=1.45806 2.60738 1.86779 3.03418 2.91324 2.63479 1.57597 0.138127 0.0335136 0.00193525
threshold=-0.031112838758901102 -0.011132273039658169 0.022530348535728474 0.0015340631702819251 0.03967463505715537 -0.004793890353822999 -0.023409255813461868 -0.031960197174980713 -0.0045390730334438434 -0.0084945438504691832
decision_type=2 2 2 2 2 2 2 2 2 2
left_child=-1 7 -3 -4 8 -6 -7 -2 9 -5
right_child=1 2 3 4 5 6 -8 -9 -10 -11
leaf_value=0.057173111067731687 -0.11264819366474617 0.072699322842119135 0.1192060115526361 -0.11080528827582051 -0.076404014503223538 0.10546750388138133 -0.010516887030806729 -0.067540010671128664 -0.12920242111607413 -0.10442928910870959
leaf_weight=3.5700028017163303 2.0056336000561719 3.1532945930957768 1.5008559077978123 0.89662187173962582 2.7778128869831571 2.3044057432562126 2.3829910252243258 1.0261582732200665 1.120337575674055 1.0148384198546412
leaf_count=33 34 31 10 13 30 20 24 18 8 31
internal_value=0 -0.0127274 0.00421196 -0.013788 -0.0328034 0.000769197 0.0465031 -0.0973806 -0.115469 -0.10742
internal_weight=0 18.1829 15.1512 11.9979 10.497 7.46521 4.6874 3.03179 3.0318 1.91146
internal_count=252 219 167 136 126 74 44 52 52 44
shrinkage=0.1


Tree=32
num_leaves=11
num_cat=0
split_feature=501 153 390 339 390 705 536 831 60 40
split_gain=1.37252 2.2656 2.18819 1.54529 2.01482 1.36982 1.22538 2.04172 1.21936 0.00635826
threshold=-0.0017409267302706778 0.021151477358793452 -0.031112838758901102 -0.010644613008902475 -0.030001363680804683 -0.0033347449444547411 -0.021376561449085181 0.0045749028296752205 -0.018459415853570658 -0.037262916994153412
decision_type=2 2 2 2 2 2 2 2 2 2
left_child=2 8 -1 -4 -5 -6 -7 -8 -2 -3
right_child=1 9 3 4 5 6 7 -9 -10 -11
leaf_value=0.092864398513299695 0.096090073206938437 -0.11663839045129727 -0.089816375026048043 0.096759032748764698 -0.072310009793519855 0.081224598235206585 0.06237261434310179 -0.07331667209352255 -0.044970930649971264 -0.10675219026160571
leaf_weight=2.834309235215188 1.1726804599165919 1.2381276544183495 1.8107571080327041 2.1499298587441436 2.593513444066045 1.8984553292393664 1.9567652791738535 2.5593716781586409 1.2835105443373311 1.3708153739571569
leaf_count=27 7 14 24 20 28 14 19 37 34 28
internal_value=0 -0.0465513 0.0132673 -0.00412855 0.00977711 -0.0109825 0.0138131 -0.0145248 0.022377 -0.111444
internal_weight=0 5.06513 15.8031 12.9688 11.158 9.00811 6.41459 4.51614 2.45619 2.60894
internal_count=252 83 169 142 118 98 70 56 41 42
shrinkage=0.1


Tree=33
num_leaves=11
num_cat=0
split_feature=659 585 234 323 716 792 232 136 997 463
split_gain=1.2915 1.98082 1.62325 2.09355 1.69281 1.50047 1.23428 1.12378 0.0135773 0.000154603
threshold=-0.0085024733349528311 -0.01522723648665353 -0.030796418620735781 -0.014111696923114562 -0.045499989519831925 -0.0038538732871851735 -0.01825509552893715 0.041050367732909369 -0.014553286910971816 -0.001831913959601617
decision_type=2 2 2 2 2 2 2 2 2 2
left_child=2 -2 4 -4 5 7 -7 -1 -3 -10
right_child=1 8 3 -5 -6 6 -8 -9 9 -11
leaf_value=0.086819141337028102 0.022389035184120182 -0.12055396535507841 0.028755684191537075 -0.10643352026536981 0.11560098110288196 0.033141821077770327 -0.084011248501124014 -0.010336545100594001 -0.10512090342305205 -0.10319711112637656
leaf_weight=3.1416988987475625 2.1471508257091045 0.73547182418406043 2.3496473506093025 2.2352581061422834 2.0523817371577033 1.5701862126588824 2.1048148060217491 1.9169716387987135 0.99245271086692821 0.72136690467595932
leaf_count=28 21 8 24 27 17 19 31 25 24 28
internal_value=0 -0.0477243 0.012691 -0.0371525 0.0338783 0.0146737 -0.0339563 0.0500022 -0.109189 -0.104311
internal_weight=0 4.59644 15.371 4.58491 10.7861 8.73367 3.675 5.05867 2.44929 1.71382
internal_count=252 81 171 51 120 103 50 53 60 52
shrinkage=0.1


Tree=34
num_leaves=10
num_cat=0
split_feature=501 153 390 339 139 254 394 541 34
split_gain=1.15558 1.97948 1.83924 1.30529 1.61048 1.42586 1.29206 1.07397 0.0052993
threshold=-0.0017409267302706778 0.021151477358793452 -0.031112838758901102 -0.010460003275710233 -0.0019683028461605651 0.038186501409848798 0.011253278725001974 -0.023501606258890199 -0.012748040434415677
decision_type=2 2 2 2 2 2 2 2 2
left_child=2 7 -1 -4 -5 -6 -7 -2 -3
right_child=1 8 3 4 5 6 -8 -9 -10
leaf_value=0.088358108701163646 -0.055702345412086608 -0.1156604560951186 -0.080136931692348548 0.072328268415478014 -0.07682804782677348 0.054062452979061593 -0.057688249435260734 0.080623506914473411 -0.10602318745254685
leaf_weight=2.6288583613932142 1.0383966062217953 1.030358858406544 1.8957453258335597 2.9590672813355914 2.471670043654739 3.1269219685345888 1.5462393127381799 1.3030194425955404 1.2786257117986677
leaf_count=27 22 11 27 29 30 33 23 19 31
internal_value=0 -0.0446247 0.0126015 -0.00399506 0.0102911 -0.015402 0.0170868 0.0201642 -0.110324
internal_weight=0 4.6504 14.6285 11.9996 10.1039 7.14483 4.67316 2.34142 2.30898
internal_count=252 83 169 142 115 86 56 41 42
shrinkage=0.1


Tree=35
num_leaves=10
num_cat=0
split_feature=319 319 669 390 410 987 384 99 997
split_gain=1.09557 1.94297 1.98383 1.35999 2.46085 1.36696 1.2748 0.375379 0.00362944
threshold=0.0043880114828987694 0.0038189699709027121 -0.020461854501876976 -0.03100364884497283 -0.020890095535157725 -0.0039168349593676748 0.013322343909503086 0.017810625231150536 -0.014212090137811823
decision_type=2 2 2 2 2 2 2 2 2
left_child=1 2 -1 -2 6 -6 8 -3 -5
right_child=3 7 -4 4 5 -7 -8 -9 -10
leaf_value=0.086418971333372105 0.09955608192463769 -0.052241498534952871 -0.050704921054018186 -0.11267642652077091 -0.02009666120864426 0.084081036980076782 0.0074546003012612994 -0.1204066875319285 -0.10448134700775008
leaf_weight=1.9950441904366014 1.7546191699802882 1.5024712625890972 2.2392862904816893 1.0548125039786103 1.9648197926580904 3.508813303895292 1.6892287097871301 1.7475099889561532 1.1081948624923819
leaf_count=21 19 26 39 13 20 38 20 22 34
internal_value=0 -0.0307358 0.0139023 0.0187876 0.00359137 0.0466853 -0.0576407 -0.0888938 -0.108478
internal_weight=0 7.48431 4.23433 11.0805 9.32587 5.47363 3.85224 3.24998 2.16301
internal_count=252 108 60 144 125 58 67 48 47
shrinkage=0.1


Tree=36
num_leaves=11
num_cat=0
split_feature=792 319 710 715 410 501 76 650 1008 278
split_gain=0.983851 1.96115 1.49136 1.3051 1.18081 2.04285 1.31296 0.970654 0.165825 0.0191076
threshold=-0.0037311370602856678 0.0051292928333947991 0.032370632251235397 -0.026244437142856129 -0.020395417657389812 -0.0018776085416710574 -0.0075566449871582184 0.023909462442522556 -0.0060223367014023126 -0.015495496453693136
decision_type=2 2 2 2 2 2 2 2 2 2
left_child=2 7 -1 -3 5 6 -4 -2 9 -9
right_child=1 3 4 -5 -6 -7 -8 8 -10 -11
leaf_value=-0.046652122820515174 0.017367584529356755 -0.033709940049935078 -0.016682043294740431 0.093417215040569684 0.10782824873369193 -0.08046473717860847 0.098550445697707031 -0.12394126570168454 -0.066417043973612339 -0.1052413747872242
leaf_weight=2.5883442573249358 0.94464719109237094 1.597878276370466 1.6043742261826994 1.6326858289539812 1.9720936715602864 1.5376193383708594 2.5770152099430566 0.93582122772932086 1.1557789184153082 1.3131761932745574
leaf_count=33 11 24 17 18 20 30 29 7 24 39
internal_value=0 -0.0284813 0.0190062 0.0305385 0.0411027 0.0180936 0.0543364 -0.0723187 -0.0972019 -0.113023
internal_weight=0 7.57999 10.2794 3.23056 7.6911 5.71901 4.18139 4.34942 3.40478 2.249
internal_count=252 123 129 42 96 76 46 81 70 46
shrinkage=0.1


Tree=37
num_leaves=12
num_cat=0
split_feature=927 464 501 153 433 153 222 987 356 835 161
split_gain=1.18913 1.7474 1.32086 1.63192 1.57589 1.60451 0.973397 0.97105 0.371118 0.00437262 0.000207886
threshold=0.0020370118033271934 -0.022197335931956601 -0.0017409267302706778 0.021321070411165117 -0.020414468419978595 0.024197436873233145 -0.00057734741975765255 -0.0032938278876269611 0.013420590639688047 0.0075966739170271981 -0.02550917600231516
decision_type=2 2 2 2 2 2 2 2 2 2 2
left_child=-1 2 4 -4 5 -2 8 9 -6 -3 -11
right_child=1 7 3 -5 6 -7 -8 -9 -10 10 -12
leaf_value=0.11062513486932253 -0.081748847293400345 -0.11267838418863983 0.044142522834636294 -0.10875745191543046 0.051532525409554823 0.048562777761708378 0.0017402420961569428 0.012439763596734732 0.11169224732673629 -0.1053232638254139 -0.10252868768877317
leaf_weight=0.90289438888430851 2.1445116624236138 1.2123725637793548 1.1348818372935068 1.8134808810427783 1.8361734692007328 1.6891056858003137 2.1101450175046885 0.93548311293124875 2.3223333284258842 0.52150989510118995 0.54371625743806307
leaf_count=8 24 15 19 37 23 20 27 16 23 13 27
internal_value=0 -0.00727877 0.00898537 -0.0499033 0.0261721 -0.0243331 0.0570588 -0.0733391 0.0851289 -0.108571 -0.103897
internal_weight=0 16.2637 13.0506 2.94836 10.1023 3.83362 6.26865 3.21308 4.15851 2.2776 1.06523
internal_count=252 244 173 56 117 44 73 71 46 55 40
shrinkage=0.1


Tree=38
num_leaves=10
num_cat=0
split_feature=715 926 230 792 319 983 381 1005 285
split_gain=0.854703 1.24319 1.26328 1.17235 1.43783 1.29275 0.746077 0.510114 0.501831
threshold=-0.025137253426773209 0.016801362033105664 0.0051520482491039287 -0.0038611331466581983 0.0049165585869144898 0.026114023181526325 0.018924347091650917 -0.0029835285459392214 0.010185366056527733
decision_type=2 2 2 2 2 2 2 2 2
left_child=1 -1 7 5 8 -4 -2 -3 -5
right_child=6 2 3 4 -6 -7 -8 -9 -10
leaf_value=0.078748969839671293 -0.11055578543915304 -0.11819063683563574 0.11227347619740576 -0.10910743677934812 0.029257408800289014 0.0026910581011156836 0.0093940357261558128 -0.028025591239251604 -0.0155891555505994
leaf_weight=2.1022261623293188 1.2350593898445361 1.1055743396282198 1.9030679892748583 1.5799505440518253 2.8169695707038045 2.478748831897974 0.89381051063537587 1.4509551990777243 0.90104634687304486
leaf_count=25 28 11 21 36 36 33 16 30 16
internal_value=0 0.00770905 -0.00449576 0.0120169 -0.0196328 0.0502838 -0.0601946 -0.0670176 -0.0751435
internal_weight=0 14.3385 12.2363 9.67978 5.29797 4.38182 2.12887 2.55653 2.481
internal_count=252 208 183 142 88 54 44 41 52
shrinkage=0.1


Tree=39
num_leaves=10
num_cat=0
split_feature=921 99 718 872 433 585 53 126 777
split_gain=0.936666 1.49138 1.09736 1.66977 1.44228 1.35105 0.86205 0.510552 0.435018
threshold=-0.018948523915189471 0.01915469788277014 0.0037801106514633097 0.040430575138160389 -0.020652370277776097 -0.012899972510963186 -0.02160586299709678 -0.01020403998467471 0.01305244651477316
decision_type=2 2 2 2 2 2 2 2 2
left_child=-1 2 6 5 -5 -4 -2 -3 -6
right_child=1 7 3 4 8 -7 -8 -9 -10
leaf_value=0.081704850198548423 0.020115219543898871 -0.024281594469825189 -0.11115958970399505 -0.03863456219311745 0.10154452970980471 0.020974445975973845 -0.10651811194736707 -0.1124499289464527 0.04304828783980566
leaf_weight=1.2594557255506522 0.89405203331261907 1.1337253488600256 1.4078427683562043 1.4271776098757953 2.8037391994148519 1.7182782934978584 1.3482301738113154 1.5611575329676259 2.3259954899549484
leaf_count=15 14 18 30 20 30 28 34 28 35
